-3.207564353942871094e-01 -3.027216792106628418e-01 2.977080941200256348e-01 -4.466885030269622803e-01 6.922280043363571167e-02 1.701627224683761597e-01 1.447744667530059814e-01 7.169930636882781982e-02 -2.321592532098293304e-02 3.285849094390869141e-01 -1.912524104118347168e-01 1.495445370674133301e-01 -2.047912962734699249e-02 -5.165969207882881165e-02 -2.493787929415702820e-02 -2.300338000059127808e-01 -1.226562727242708206e-02 1.149153038859367371e-01 -6.513762474060058594e-02 4.974349215626716614e-02 -3.790483176708221436e-01 1.416587829589843750e-02 2.273881286382675171e-01 -1.455851197242736816e-01 2.000755220651626587e-01 2.446315288543701172e-01 2.486803382635116577e-01 1.699657738208770752e-02 3.879878222942352295e-01 2.414813637733459473e-01 2.712866365909576416e-01 -3.541653975844383240e-02
-1.548185497522354126e-01 -6.194120645523071289e-01 2.893775999546051025e-01 -2.464846074581146240e-01 3.377958238124847412e-01 8.692464232444763184e-02 2.794838547706604004e-01 5.620191693305969238e-01 -4.992855340242385864e-02 2.437322288751602173e-01 2.554939389228820801e-01 3.259696066379547119e-02 3.392772376537322998e-01 8.917485922574996948e-02 1.987067013978958130e-01 -5.260909199714660645e-01 -1.425746977329254150e-01 -9.041819721460342407e-02 -1.475768983364105225e-01 -3.175313472747802734e-01 -1.259378939867019653e-01 4.416245222091674805e-01 3.203250765800476074e-01 -1.442421227693557739e-01 3.393500447273254395e-01 -7.265833020210266113e-02 3.627899289131164551e-01 -4.141102358698844910e-02 5.601027607917785645e-01 -1.011815518140792847e-01 8.118448406457901001e-02 4.721640795469284058e-02
-1.924964487552642822e-01 -5.510004758834838867e-01 1.076391711831092834e-01 -5.185915231704711914e-01 -7.758366316556930542e-02 2.773369550704956055e-01 1.197149232029914856e-02 1.044192984700202942e-01 2.538816928863525391e-01 1.835701465606689453e-01 -1.520100980997085571e-01 4.333357140421867371e-02 8.886151015758514404e-03 2.621722519397735596e-01 -8.055517822504043579e-02 -3.071314692497253418e-01 1.990187019109725952e-01 -7.505723088979721069e-02 -2.544279992580413818e-01 2.948902249336242676e-01 -2.270137369632720947e-01 1.419194638729095459e-01 4.818316921591758728e-02 -1.627858132123947144e-01 7.650644332170486450e-02 1.169114783406257629e-01 7.587981224060058594e-02 -2.867634594440460205e-01 1.041636914014816284e-01 1.482408493757247925e-01 1.714841276407241821e-01 1.258787065744400024e-01
-3.148166537284851074e-01 -1.402289122343063354e-01 2.290415912866592407e-01 -1.870982646942138672e-01 -2.195528447628021240e-01 2.814778983592987061e-01 2.194571048021316528e-01 7.185376435518264771e-02 1.231949850916862488e-01 2.689732611179351807e-01 -1.330662220716476440e-01 7.324637472629547119e-02 1.940743029117584229e-01 8.043645322322845459e-02 1.757247596979141235e-01 -1.506306827068328857e-01 1.053537502884864807e-01 -3.160158693790435791e-01 -3.582356572151184082e-01 1.906629204750061035e-01 1.672947220504283905e-02 -4.042403027415275574e-02 -4.121772572398185730e-02 1.004328206181526184e-01 1.094210296869277954e-01 7.373268157243728638e-02 2.272282689809799194e-01 -2.786469161510467529e-01 1.388424485921859741e-01 2.302084863185882568e-01 1.169444918632507324e-01 1.549072116613388062e-01
1.221880689263343811e-01 -4.466825425624847412e-01 1.853356808423995972e-01 -3.665975928306579590e-01 5.471602678298950195e-01 -1.323926001787185669e-01 3.688564896583557129e-01 2.689959406852722168e-01 -2.357268333435058594e-01 1.856505125761032104e-01 1.055552251636981964e-02 -4.652987048029899597e-02 2.838163077831268311e-01 -1.668494343757629395e-01 1.940709799528121948e-01 -6.742209792137145996e-01 -1.203050687909126282e-01 2.011511325836181641e-01 9.566956013441085815e-02 -3.018399477005004883e-01 -8.302700519561767578e-02 4.085935354232788086e-01 2.329817861318588257e-01 -2.437774091958999634e-01 2.470040023326873779e-01 -1.640081219375133514e-02 2.286346405744552612e-01 1.312293261289596558e-01 7.283563613891601562e-01 -1.628345251083374023e-01 5.291319265961647034e-02 -9.509687870740890503e-02
-3.683607578277587891e-01 -3.606967329978942871e-01 1.875703409314155579e-02 -2.521833181381225586e-01 -5.085171386599540710e-02 1.880726218223571777e-01 -2.930386923253536224e-02 -1.573372781276702881e-01 1.732031852006912231e-01 -9.322468191385269165e-03 -1.649269610643386841e-01 3.725595772266387939e-01 -2.078796923160552979e-01 3.444017171859741211e-01 -5.149694904685020447e-02 -5.532055348157882690e-02 2.975025177001953125e-01 -3.491407334804534912e-01 -1.963738650083541870e-01 1.746832877397537231e-01 7.042787503451108932e-03 -2.974628210067749023e-01 -1.853319555521011353e-01 -7.836067676544189453e-02 1.022069603204727173e-01 1.982051879167556763e-01 -5.930631980299949646e-02 -2.540583014488220215e-01 1.873443871736526489e-01 1.254709959030151367e-01 -1.800561249256134033e-01 1.111120134592056274e-01
8.386835455894470215e-02 -1.726490110158920288e-01 -1.116707250475883484e-01 4.260567575693130493e-02 1.773156225681304932e-01 1.486810147762298584e-01 1.859000325202941895e-02 -1.761234700679779053e-01 -4.135834425687789917e-02 3.421100974082946777e-01 -3.407877311110496521e-02 3.552149981260299683e-02 4.019792377948760986e-02 1.375580430030822754e-01 -6.746836937963962555e-03 3.317449986934661865e-01 1.227587182074785233e-02 7.495358586311340332e-02 -5.122828111052513123e-02 1.575919687747955322e-01 2.939929068088531494e-01 -3.564132843166589737e-03 2.141808867454528809e-01 -2.902607321739196777e-01 -4.441215097904205322e-02 -7.016296684741973877e-02 3.190432488918304443e-01 2.625900804996490479e-01 1.217636093497276306e-01 -1.162753440439701080e-03 2.772409021854400635e-01 -3.528069853782653809e-01
-5.022332668304443359e-01 -4.509526193141937256e-01 1.102466806769371033e-01 -6.749740839004516602e-01 -1.129119321703910828e-01 2.306516319513320923e-01 -4.340775683522224426e-02 -8.873719722032546997e-02 1.850705444812774658e-01 2.560918033123016357e-01 -2.866384088993072510e-01 2.990506887435913086e-01 -2.169500291347503662e-02 5.856757052242755890e-03 6.985526531934738159e-02 -5.333400964736938477e-01 4.830322414636611938e-02 -2.066023945808410645e-01 -2.020679265260696411e-01 -3.013918548822402954e-02 -1.123473644256591797e-01 8.529718965291976929e-02 1.730093210935592651e-01 8.570566028356552124e-02 1.080756708979606628e-01 1.044177263975143433e-01 2.403185665607452393e-01 -3.715422451496124268e-01 1.509950459003448486e-01 -3.982529789209365845e-02 -5.124002695083618164e-02 1.666139960289001465e-01
-3.138555213809013367e-02 -3.605468869209289551e-01 1.469501554965972900e-01 -3.965609148144721985e-02 5.824870988726615906e-02 -1.439487040042877197e-01 4.170041531324386597e-02 7.004911452531814575e-02 1.853557527065277100e-01 5.213072896003723145e-02 -4.701464250683784485e-02 1.958772838115692139e-01 5.889618024230003357e-02 1.978618279099464417e-02 6.494943052530288696e-03 -4.978263080120086670e-01 1.937995851039886475e-02 -1.404575556516647339e-01 1.474638190120458603e-02 -1.730460226535797119e-01 -4.362126886844635010e-01 2.519312202930450439e-01 -6.209941208362579346e-02 2.172036319971084595e-01 1.798596829175949097e-01 -7.253292202949523926e-02 1.160829886794090271e-01 3.875050693750381470e-02 2.554101347923278809e-01 -3.452783823013305664e-01 1.055493429303169250e-01 -4.226684197783470154e-02
-2.071649730205535889e-01 -4.837555885314941406e-01 1.524244546890258789e-01 -2.455713003873825073e-01 -1.311834622174501419e-02 2.893502591177821159e-03 1.563841700553894043e-01 5.454815179109573364e-02 2.183337807655334473e-01 2.002501189708709717e-01 -4.545239731669425964e-02 1.928078532218933105e-01 4.500844702124595642e-02 2.606498003005981445e-01 -2.112647332251071930e-02 -4.654608070850372314e-01 5.587977170944213867e-02 -2.657218277454376221e-01 -2.793397009372711182e-01 -1.122258752584457397e-01 -4.761415421962738037e-01 1.265872269868850708e-01 1.283861249685287476e-01 2.069810479879379272e-01 2.181093096733093262e-01 3.673223257064819336e-01 4.010090604424476624e-03 -3.377222418785095215e-01 2.361316084861755371e-01 -2.223885431885719299e-02 6.535407155752182007e-02 1.536172330379486084e-01
1.272571273148059845e-02 -1.701530814170837402e-01 -4.520384594798088074e-02 1.060875281691551208e-01 -1.736714392900466919e-01 1.292092651128768921e-01 1.055232286453247070e-01 1.078720465302467346e-01 2.574443817138671875e-01 3.308353945612907410e-02 -1.972084492444992065e-02 1.906234472990036011e-01 6.120406836271286011e-02 2.261590063571929932e-01 -2.042702957987785339e-02 -3.880711197853088379e-01 1.897432953119277954e-01 -2.104055732488632202e-01 -1.623452305793762207e-01 -2.170280069112777710e-01 -4.043579697608947754e-01 -3.871817514300346375e-02 -1.629227027297019958e-02 3.579029142856597900e-01 2.105497419834136963e-01 2.262080162763595581e-01 1.086309254169464111e-01 -1.889017373323440552e-01 -7.176236808300018311e-02 -3.386112749576568604e-01 -7.117334753274917603e-02 2.966878712177276611e-01
-5.889464542269706726e-02 1.761446893215179443e-01 1.800924725830554962e-02 1.357226371765136719e-01 1.227217726409435272e-02 -5.787355825304985046e-02 1.683062501251697540e-02 3.671335428953170776e-02 -1.369618996977806091e-02 -1.855248212814331055e-02 -6.416883319616317749e-02 6.445853412151336670e-02 6.232541054487228394e-02 2.382944226264953613e-01 -5.147795751690864563e-02 -1.884706616401672363e-01 2.018006518483161926e-02 -6.807750463485717773e-02 -7.249687612056732178e-02 -2.919376194477081299e-01 -2.284304350614547729e-01 9.465020895004272461e-02 1.037838384509086609e-01 1.229255124926567078e-01 2.309453673660755157e-03 -7.807508111000061035e-02 -7.324499636888504028e-02 -2.024772316217422485e-01 1.174861863255500793e-01 9.022343903779983521e-02 1.014644727110862732e-01 2.967165783047676086e-02
-2.762017250061035156e-01 -6.078572869300842285e-01 -5.222846567630767822e-02 -2.665303647518157959e-01 -1.005921065807342529e-01 2.992945015430450439e-01 -1.091347709298133850e-01 5.082913115620613098e-02 -5.556075647473335266e-02 8.769537508487701416e-02 -3.023955225944519043e-02 -1.140165850520133972e-01 -2.089142613112926483e-02 1.054399609565734863e-01 1.527733951807022095e-01 -3.970338106155395508e-01 1.384873241186141968e-01 -2.739706337451934814e-01 -1.312139332294464111e-01 -4.177171364426612854e-02 -3.393265604972839355e-01 -2.549407770857214928e-03 4.651112109422683716e-02 -1.749796271324157715e-01 2.628224194049835205e-01 2.142637670040130615e-01 2.704125344753265381e-01 -3.635481894016265869e-01 1.887037903070449829e-01 1.267651468515396118e-01 -8.060014247894287109e-02 -5.174489319324493408e-02
-7.985051721334457397e-02 -3.147080838680267334e-01 5.001576617360115051e-02 -1.191217601299285889e-01 -5.473883152008056641e-01 1.182261034846305847e-01 -1.265977770090103149e-01 -1.294701248407363892e-01 5.913062393665313721e-02 -1.659891940653324127e-02 -1.350245773792266846e-01 1.131095886230468750e-01 1.525493804365396500e-02 1.104321107268333435e-01 5.954507365822792053e-02 -1.424478888511657715e-01 1.722085475921630859e-01 -4.774602055549621582e-01 -3.179602622985839844e-01 -6.142761930823326111e-02 -3.828106448054313660e-02 -1.358914077281951904e-01 1.197119490825571120e-04 1.390040367841720581e-01 5.919207260012626648e-02 -7.077112048864364624e-02 8.784496039152145386e-02 -4.353553652763366699e-01 1.069683656096458435e-01 9.514523297548294067e-02 -8.423349820077419281e-03 1.001436542719602585e-02
-2.652246356010437012e-01 -5.038416385650634766e-01 1.191649436950683594e-01 -4.169848561286926270e-01 -6.438909769058227539e-01 6.946326047182083130e-02 -2.886304855346679688e-01 -4.239347875118255615e-01 1.819273382425308228e-01 -9.074526280164718628e-02 -3.217849135398864746e-01 1.542627662420272827e-01 -6.140475347638130188e-02 1.509031504392623901e-01 1.253371313214302063e-02 -2.008955329656600952e-01 -4.363853018730878830e-03 -2.647154331207275391e-01 -5.360307097434997559e-01 1.525906175374984741e-01 -1.106717362999916077e-01 -3.400790691375732422e-01 -1.469094604253768921e-01 8.316666632890701294e-02 1.477291136980056763e-01 1.308691948652267456e-01 1.008725464344024658e-01 -3.871162533760070801e-01 -1.468919366598129272e-01 -7.888538390398025513e-02 1.303453296422958374e-01 2.233802527189254761e-01
-2.711006067693233490e-02 1.803627759218215942e-01 1.335024088621139526e-01 1.859658062458038330e-01 -1.483045518398284912e-01 -1.418353617191314697e-01 2.109384387731552124e-01 1.735285520553588867e-01 -1.512329932302236557e-02 1.994505822658538818e-01 -1.069579571485519409e-01 1.396320760250091553e-01 -5.623018369078636169e-02 -2.735240943729877472e-02 -1.258359551429748535e-01 -2.512704730033874512e-01 1.310250908136367798e-01 -6.141009554266929626e-02 1.787072047591209412e-02 -3.134348690509796143e-01 -3.989341259002685547e-01 1.212437748908996582e-01 -8.954774588346481323e-02 1.466628015041351318e-01 -3.470207378268241882e-02 -1.185608953237533569e-01 1.519834809005260468e-02 -8.809554576873779297e-02 9.129467420279979706e-03 -5.914655700325965881e-02 -5.441523343324661255e-02 5.619192123413085938e-02
-1.017329283058643341e-02 -2.675381302833557129e-01 2.202624920755624771e-03 9.969004429876804352e-03 2.019954174757003784e-01 -6.359717845916748047e-01 1.416102051734924316e-01 2.027285248041152954e-01 -1.645081043243408203e-01 1.248381361365318298e-01 4.755242168903350830e-01 -3.389854133129119873e-01 2.043759077787399292e-01 -1.804865300655364990e-01 4.653112217783927917e-02 5.063221231102943420e-02 -4.546926319599151611e-01 3.321398496627807617e-01 3.304899483919143677e-02 -2.591392397880554199e-01 3.067642450332641602e-03 5.601584911346435547e-02 2.527684867382049561e-01 -4.143830761313438416e-02 -1.736813634634017944e-01 -4.089658856391906738e-01 -2.819823287427425385e-02 3.730614185333251953e-01 1.964510791003704071e-02 -1.802966892719268799e-01 2.626411318778991699e-01 -2.197024226188659668e-01
-7.455545663833618164e-02 1.066696047782897949e-01 -6.238440424203872681e-02 3.232042789459228516e-01 2.840493619441986084e-01 -2.199339568614959717e-01 2.752704918384552002e-01 2.445591241121292114e-01 2.035949230194091797e-01 2.186474353075027466e-01 1.313314437866210938e-01 -6.225325167179107666e-02 1.253415346145629883e-01 2.047659456729888916e-01 -6.246867403388023376e-02 -5.255738496780395508e-01 1.711139827966690063e-01 1.346093416213989258e-01 1.307919155806303024e-02 -4.604779183864593506e-01 -2.687429785728454590e-01 1.675056219100952148e-01 6.632214784622192383e-02 1.888157725334167480e-01 1.965759135782718658e-02 -1.021410077810287476e-01 -2.551505155861377716e-02 -1.120946779847145081e-01 3.408661782741546631e-01 -4.485163390636444092e-01 -8.078474551439285278e-02 2.644085288047790527e-01
1.001350730657577515e-01 2.030292600393295288e-01 -3.088475763797760010e-02 -7.054779678583145142e-02 4.371516406536102295e-02 -3.162450790405273438e-01 1.541188657283782959e-01 -1.618589162826538086e-01 -9.569563716650009155e-02 2.611338794231414795e-01 -1.036759167909622192e-01 -2.092895060777664185e-01 -5.783431977033615112e-02 -3.330449759960174561e-01 4.599104821681976318e-02 -1.101844832301139832e-01 -7.473337650299072266e-02 1.362140476703643799e-01 1.077767387032508850e-01 -8.877599239349365234e-02 -1.542885750532150269e-01 -2.377697080373764038e-02 -1.803597621619701385e-02 1.296033803373575211e-02 -1.056127343326807022e-02 -1.946637779474258423e-01 -1.883235275745391846e-01 1.816153377294540405e-01 3.234578669071197510e-02 -2.871168553829193115e-01 4.996480792760848999e-02 -1.610851138830184937e-01
5.908604338765144348e-02 1.231528297066688538e-01 -6.106266286224126816e-03 5.384950712323188782e-02 -1.929950118064880371e-01 -1.199446097016334534e-01 8.631175756454467773e-02 -1.610120683908462524e-01 3.719631209969520569e-02 4.845671728253364563e-02 1.565337879583239555e-03 -1.242200881242752075e-01 -1.789935491979122162e-02 -1.136176884174346924e-01 -7.348220050334930420e-02 1.691990196704864502e-01 3.196104243397712708e-02 1.697246879339218140e-01 4.769436642527580261e-02 -3.055239915847778320e-01 -2.254751324653625488e-02 1.938155293464660645e-01 -4.703811556100845337e-02 2.780323922634124756e-01 -1.606588810682296753e-01 -2.903660237789154053e-01 -1.109850183129310608e-01 -5.334197729825973511e-02 -1.217216067016124725e-02 -2.518332004547119141e-01 3.324950635433197021e-01 3.813362717628479004e-01
-4.209379479289054871e-02 2.992716133594512939e-01 1.495089977979660034e-01 1.983849555253982544e-01 -1.014077439904212952e-01 -1.527413576841354370e-01 2.804849743843078613e-01 1.673666983842849731e-01 1.107131913304328918e-01 1.936140358448028564e-01 -2.788190916180610657e-02 -2.585522457957267761e-02 -7.876700162887573242e-02 9.948708862066268921e-02 -9.070631116628646851e-02 -7.534962296485900879e-01 2.177833318710327148e-01 -6.462596356868743896e-02 4.337778780609369278e-03 -3.990505337715148926e-01 -4.821771979331970215e-01 1.166958063840866089e-01 -7.764747831970453262e-03 1.474526375532150269e-01 2.869149670004844666e-02 1.095694452524185181e-01 -6.150104478001594543e-02 4.268135502934455872e-02 5.235934257507324219e-02 -3.069104552268981934e-01 1.168129220604896545e-01 6.971444934606552124e-02
1.761731342412531376e-03 4.807975888252258301e-02 1.629752479493618011e-02 1.051082368940114975e-02 -1.644235849380493164e-01 -1.194113269448280334e-01 1.038364320993423462e-01 1.438980698585510254e-01 7.611177861690521240e-02 2.481256797909736633e-02 -1.653395742177963257e-01 -1.830736547708511353e-02 2.488978952169418335e-02 6.567682325839996338e-02 -9.415411204099655151e-02 -2.888972163200378418e-01 1.127239614725112915e-01 -2.409098446369171143e-01 -4.968966543674468994e-02 7.076313346624374390e-02 -3.586591780185699463e-01 -6.273647770285606384e-03 2.629856392741203308e-02 -4.310216382145881653e-02 3.327604383230209351e-02 -1.157673597335815430e-01 -7.342265546321868896e-02 -2.229938358068466187e-01 -1.512979567050933838e-01 -2.143939882516860962e-01 6.249444093555212021e-03 1.944745332002639771e-01
-5.902457609772682190e-02 -2.231656312942504883e-01 1.412877440452575684e-02 5.058199539780616760e-02 -2.511600852012634277e-01 6.341150728985667229e-04 -1.006907001137733459e-01 1.836885139346122742e-02 1.001361906528472900e-01 6.083779968321323395e-03 -1.151200458407402039e-01 6.626335904002189636e-03 -8.456082642078399658e-02 3.447667509317398071e-02 -3.930572792887687683e-02 -2.266280055046081543e-01 -8.021228760480880737e-02 -2.633927464485168457e-01 -5.061753466725349426e-02 1.542518846690654755e-02 -4.528819918632507324e-01 6.135417148470878601e-02 4.121682420372962952e-02 -3.598903492093086243e-02 6.124337390065193176e-02 4.227018728852272034e-02 -6.399911828339099884e-03 -2.188844084739685059e-01 -5.123523250222206116e-02 -1.030321940779685974e-01 9.433005005121231079e-02 1.511808186769485474e-01
3.700637072324752808e-02 -6.017915904521942139e-02 -5.619035288691520691e-02 1.108449622988700867e-01 -9.806883335113525391e-02 -1.735894381999969482e-01 5.618923529982566833e-02 -8.611701428890228271e-03 3.013925850391387939e-01 2.069429308176040649e-02 -4.577093198895454407e-02 -1.265958100557327271e-01 -1.423810422420501709e-01 1.408472210168838501e-01 -3.083374164998531342e-02 1.233471557497978210e-01 -2.263604104518890381e-01 3.512074425816535950e-02 1.821216046810150146e-01 -6.055606529116630554e-02 1.030968651175498962e-01 -1.589906364679336548e-01 -1.025543063879013062e-01 6.011191289871931076e-03 -3.990045189857482910e-02 -1.931606978178024292e-01 -2.881055176258087158e-01 -9.622044861316680908e-02 6.301414966583251953e-02 -1.597050577402114868e-01 -2.465309947729110718e-02 3.936791419982910156e-01
1.505676060914993286e-01 -1.990801841020584106e-01 -1.021253317594528198e-01 -2.356497049331665039e-01 3.702498376369476318e-01 -7.936680316925048828e-02 1.801024228334426880e-01 3.221065998077392578e-01 -6.973031163215637207e-02 6.365524232387542725e-02 1.654926538467407227e-01 -2.055279910564422607e-01 2.987655103206634521e-01 -1.950994282960891724e-01 2.431084066629409790e-01 -2.175819873809814453e-02 -3.395044803619384766e-01 3.006419539451599121e-01 1.231975108385086060e-01 -2.748660147190093994e-01 -6.889081001281738281e-02 3.289293348789215088e-01 -2.106970176100730896e-02 -1.301291584968566895e-01 4.813133738934993744e-03 -2.716282010078430176e-01 3.644290864467620850e-01 2.455153763294219971e-01 1.748624593019485474e-01 -4.583816826343536377e-01 1.659203320741653442e-01 -2.026745378971099854e-01
1.085306517779827118e-03 -5.361629277467727661e-02 2.366779297590255737e-01 -3.948752954602241516e-02 1.514479219913482666e-01 -2.457167208194732666e-01 1.337968856096267700e-01 -7.335831224918365479e-02 -4.424526989459991455e-01 1.437106430530548096e-01 4.837098997086286545e-03 -4.803561866283416748e-01 3.827507141977548599e-03 -4.161372482776641846e-01 1.137357130646705627e-01 -6.812547147274017334e-02 -4.249267876148223877e-01 2.135782241821289062e-01 8.040535449981689453e-02 -1.468506604433059692e-01 5.288253887556493282e-04 3.623484373092651367e-01 1.002436727285385132e-01 -1.877703815698623657e-01 2.322943806648254395e-01 -5.025002956390380859e-01 6.605093926191329956e-02 2.039664983749389648e-01 3.110632896423339844e-01 -1.319988518953323364e-01 2.456094771623611450e-01 -3.351871669292449951e-01
-6.158043816685676575e-02 -2.617885172367095947e-01 6.060199439525604248e-02 -1.985652148723602295e-01 2.221486419439315796e-01 -2.444500476121902466e-01 1.998418271541595459e-01 1.856698244810104370e-01 -1.176181510090827942e-01 1.018754243850708008e-01 -8.774586766958236694e-02 -4.070151150226593018e-01 -1.530619990080595016e-02 -2.340161800384521484e-01 1.754556447267532349e-01 1.830065250396728516e-01 -3.990061879158020020e-01 1.298952996730804443e-01 1.325363218784332275e-01 -2.177274078130722046e-01 2.559953629970550537e-01 1.646489500999450684e-01 1.307278964668512344e-02 -2.001049071550369263e-01 4.511569440364837646e-01 -1.777074187994003296e-01 2.557675540447235107e-01 2.267926745116710663e-02 3.241470158100128174e-01 -2.252705991268157959e-01 1.967580318450927734e-01 -1.722524166107177734e-01
1.777699291706085205e-01 -2.888054354116320610e-03 1.541194915771484375e-01 2.013477496802806854e-02 -1.095391530543565750e-02 -1.519546508789062500e-01 1.123382076621055603e-01 4.890691954642534256e-03 -9.516107290983200073e-02 3.837939724326133728e-02 1.004235446453094482e-01 9.203047305345535278e-02 1.442129015922546387e-01 -7.983642071485519409e-02 7.391333114355802536e-03 -3.316199034452438354e-02 -1.729812622070312500e-01 3.272188603878021240e-01 1.865910440683364868e-01 -2.153099179267883301e-01 1.536706686019897461e-01 4.294100999832153320e-01 1.376640945672988892e-01 -3.704580664634704590e-01 -7.975249737501144409e-02 -2.681680321693420410e-01 -3.093069419264793396e-02 1.198933571577072144e-01 1.681865602731704712e-01 -1.609304100275039673e-01 5.310368537902832031e-02 -2.362087219953536987e-01
9.901540353894233704e-03 2.641552388668060303e-01 -1.081627309322357178e-01 -5.150525271892547607e-02 -1.284411996603012085e-01 -2.542045116424560547e-01 -1.207170486450195312e-01 1.012324392795562744e-01 8.874761313199996948e-02 1.760928705334663391e-02 6.937412172555923462e-02 -4.494484066963195801e-01 9.255490265786647797e-03 -3.438906073570251465e-01 -2.233708202838897705e-01 1.942566782236099243e-01 -6.253727078437805176e-01 -1.956727169454097748e-02 7.947409152984619141e-02 -1.022475510835647583e-01 -2.266598790884017944e-01 4.128006473183631897e-02 -1.463073939085006714e-01 -2.794191613793373108e-02 2.558632791042327881e-01 -5.610020756721496582e-01 6.482611596584320068e-02 3.697923384606838226e-03 -9.421616047620773315e-02 -3.142932057380676270e-01 1.348909139633178711e-01 3.943989798426628113e-02
4.899422824382781982e-02 3.551774322986602783e-01 1.887194067239761353e-01 2.367326766252517700e-01 -3.037663698196411133e-01 -3.248989582061767578e-01 1.923208497464656830e-02 2.503348700702190399e-02 2.844176627695560455e-02 -7.310855668038129807e-03 -3.103933632373809814e-01 -5.577350258827209473e-01 -9.727421402931213379e-02 -6.331820487976074219e-01 -3.404825329780578613e-01 3.055113852024078369e-01 -6.858525872230529785e-01 4.413705691695213318e-02 -1.856252085417509079e-03 -1.248360499739646912e-01 -1.366112977266311646e-01 -7.147348672151565552e-02 -1.058758869767189026e-01 -1.294864714145660400e-01 -6.779031455516815186e-02 -5.440123677253723145e-01 -2.817153334617614746e-01 -2.965024709701538086e-01 1.363872587680816650e-01 -6.839649081230163574e-01 -8.756528794765472412e-02 1.541044861078262329e-01
-8.138667047023773193e-02 2.217451184988021851e-01 1.928419768810272217e-01 3.169894814491271973e-01 -2.197891846299171448e-02 -1.974658817052841187e-01 -2.043786272406578064e-02 8.855356276035308838e-02 1.336171030998229980e-01 -1.261590123176574707e-01 1.080483719706535339e-01 -3.848611116409301758e-01 -6.837288290262222290e-02 -1.352368295192718506e-01 -7.761389762163162231e-02 9.521806985139846802e-02 -3.915600180625915527e-01 5.010671168565750122e-02 6.221474334597587585e-02 -5.488157272338867188e-02 -1.131882742047309875e-01 -1.506929546594619751e-01 3.655294328927993774e-02 1.218886449933052063e-01 -3.469392657279968262e-02 -4.880266189575195312e-01 -2.278296202421188354e-01 -1.822233498096466064e-01 -2.986315079033374786e-02 -3.790054619312286377e-01 2.481760084629058838e-01 1.435096263885498047e-01
2.824124693870544434e-01 -1.138988360762596130e-01 2.344466149806976318e-01 4.507597908377647400e-02 -1.725500226020812988e-01 -9.713898599147796631e-02 3.922659903764724731e-02 -1.042106747627258301e-02 -2.668373286724090576e-01 -3.256654366850852966e-02 -2.873623967170715332e-01 -1.879923045635223389e-01 5.592970922589302063e-02 -1.057955697178840637e-01 8.671736717224121094e-02 2.655035257339477539e-01 -4.498395919799804688e-01 6.553368177264928818e-03 5.860151723027229309e-02 -3.100416660308837891e-01 2.480980195105075836e-02 6.008909642696380615e-02 2.332144975662231445e-02 -1.672592610120773315e-01 1.968916654586791992e-01 -3.421659767627716064e-01 8.172794431447982788e-02 -8.874269574880599976e-02 4.381728172302246094e-02 -2.298096865415573120e-01 4.999317601323127747e-02 -2.724590003490447998e-01
-1.305183321237564087e-01 -1.788690239191055298e-01 1.818682700395584106e-01 -2.352407127618789673e-01 -2.759089171886444092e-01 1.653858721256256104e-01 -1.383610963821411133e-01 -1.322728544473648071e-01 9.657304733991622925e-02 1.817726641893386841e-01 -3.285375982522964478e-02 3.961935639381408691e-02 6.656333804130554199e-02 1.476432830095291138e-01 -5.601206049323081970e-02 9.677176922559738159e-02 -4.951821640133857727e-02 -3.538053333759307861e-01 -3.502669632434844971e-01 1.709838658571243286e-01 -5.893502384424209595e-02 9.731078520417213440e-03 2.186591550707817078e-02 -2.953496277332305908e-01 2.452083826065063477e-01 1.480813473463058472e-01 -4.416833072900772095e-02 -4.818806350231170654e-01 3.038935661315917969e-01 2.122096270322799683e-01 1.890758424997329712e-01 5.665481090545654297e-02
-2.584578990936279297e-01 -4.531084299087524414e-01 6.702637672424316406e-02 -2.976472079753875732e-01 1.239519789814949036e-01 9.953522682189941406e-02 1.407448016107082367e-02 5.034183710813522339e-02 2.282185405492782593e-01 1.233727335929870605e-01 -2.327144145965576172e-01 9.146084636449813843e-02 1.157876402139663696e-01 9.606664627790451050e-02 8.242801576852798462e-02 7.093161344528198242e-02 1.921738982200622559e-01 -1.383406519889831543e-01 -3.136627972126007080e-01 1.591578722000122070e-01 3.164117038249969482e-02 -2.033919095993041992e-02 4.795506969094276428e-02 -2.041402012109756470e-01 1.119232326745986938e-01 1.689218543469905853e-02 1.657386869192123413e-01 -3.198806047439575195e-01 3.436465263366699219e-01 -9.301717579364776611e-02 1.100429594516754150e-01 -1.070016920566558838e-01
-2.060747444629669189e-01 3.644135594367980957e-02 4.246387258172035217e-02 -8.684117347002029419e-02 -9.756156057119369507e-02 -3.521193191409111023e-02 -1.436976343393325806e-01 2.155707590281963348e-02 -5.103706498630344868e-04 1.664812564849853516e-01 -2.713575363159179688e-01 2.205593744292855263e-03 1.027383878827095032e-01 2.042119950056076050e-01 1.861147582530975342e-01 -7.404392212629318237e-02 2.591891884803771973e-01 -4.868885874748229980e-01 -3.169927895069122314e-01 1.037432402372360229e-01 7.372538745403289795e-02 -1.812754422426223755e-01 9.923128038644790649e-02 -1.619160473346710205e-01 4.284969717264175415e-02 3.273070976138114929e-02 1.875834017992019653e-01 -5.978362560272216797e-01 1.269400268793106079e-01 2.568240463733673096e-01 4.627763992175459862e-04 6.611771881580352783e-02
-2.922800481319427490e-01 1.695551276206970215e-01 4.662674665451049805e-02 2.420238256454467773e-01 5.961642414331436157e-02 5.298890545964241028e-02 -1.654181629419326782e-01 4.221088811755180359e-02 -1.312062330543994904e-02 1.586504280567169189e-01 -1.078081410378217697e-02 1.487724632024765015e-01 6.822014600038528442e-02 -1.797807961702346802e-02 5.071231722831726074e-02 1.869822037406265736e-03 4.748962819576263428e-02 -3.515730500221252441e-01 -6.258662939071655273e-01 7.192966341972351074e-02 1.254338026046752930e-01 -1.771050542593002319e-01 1.249899789690971375e-01 1.695028096437454224e-01 5.836307629942893982e-02 4.986989870667457581e-02 4.569859057664871216e-02 -3.963609337806701660e-01 -1.318521238863468170e-02 2.365219295024871826e-01 1.367833614349365234e-01 2.445612475275993347e-02
1.505831629037857056e-02 -8.830214291810989380e-02 1.141605004668235779e-01 -1.641153693199157715e-01 1.412036865949630737e-01 -1.907900869846343994e-01 2.887907326221466064e-01 3.569771945476531982e-01 -2.055377215147018433e-01 5.870223417878150940e-02 1.875096261501312256e-01 -1.181319728493690491e-01 -2.763510681688785553e-02 -3.674056828022003174e-01 -1.912262886762619019e-01 -7.796058803796768188e-02 -2.315001934766769409e-01 -1.629223227500915527e-01 7.887341827154159546e-02 -1.717348396778106689e-01 -1.040560826659202576e-01 2.409766763448715210e-01 1.444171220064163208e-01 -2.379319667816162109e-01 8.805207163095474243e-02 -1.999737471342086792e-01 6.621130555868148804e-02 7.717053592205047607e-02 4.448838829994201660e-01 5.720022320747375488e-02 -2.135755866765975952e-02 -3.960721194744110107e-01
-4.304332137107849121e-01 2.138930708169937134e-01 -1.930918842554092407e-01 -2.121417783200740814e-02 -4.101699590682983398e-02 -1.955953985452651978e-02 -9.436381608247756958e-02 1.130583807826042175e-01 -2.970901727676391602e-01 -4.929106682538986206e-02 1.024660691618919373e-01 -2.002395391464233398e-01 -1.848407685756683350e-01 -3.672608137130737305e-01 -1.331922858953475952e-01 1.380089521408081055e-01 7.362429052591323853e-02 -2.082267999649047852e-01 -4.260698854923248291e-01 1.449254006147384644e-01 -7.915984839200973511e-02 -6.448376178741455078e-02 1.453700959682464600e-01 -3.339078426361083984e-01 -1.914861425757408142e-02 2.041721343994140625e-01 -5.268412083387374878e-02 -1.518589630722999573e-02 -1.028398647904396057e-01 2.253310382366180420e-01 -4.981249272823333740e-01 -3.181723952293395996e-01
-4.429211840033531189e-02 -1.588981039822101593e-02 -1.099718958139419556e-01 -2.838371098041534424e-01 2.129576653242111206e-01 -4.255126714706420898e-01 2.368450909852981567e-01 3.548744320869445801e-01 -1.322551518678665161e-01 1.168389990925788879e-01 1.511981189250946045e-01 -2.375159263610839844e-01 2.766665518283843994e-01 -2.366765290498733521e-01 2.425297498703002930e-01 9.725993126630783081e-02 -1.177377551794052124e-01 7.960446923971176147e-02 1.800227016210556030e-01 -5.156777054071426392e-02 1.381943970918655396e-01 6.476840376853942871e-01 4.645014926791191101e-02 -4.521821141242980957e-01 -1.349976956844329834e-01 -4.196322560310363770e-01 -6.959685683250427246e-02 3.449268043041229248e-01 5.452455878257751465e-01 -1.174676939845085144e-01 3.492099419236183167e-02 -2.336735129356384277e-01
-4.937597811222076416e-01 -1.064218282699584961e-01 -1.349563244730234146e-03 2.747458172962069511e-03 -1.787964254617691040e-01 6.984248012304306030e-02 -4.581690579652786255e-02 -1.698087900876998901e-01 -9.652590379118919373e-03 -1.043014302849769592e-01 -3.599464893341064453e-02 2.653716206550598145e-01 1.065278127789497375e-01 9.436221420764923096e-02 1.475823372602462769e-01 -1.274923980236053467e-02 7.506758719682693481e-02 -6.062038540840148926e-01 -6.992978453636169434e-01 2.678892910480499268e-01 6.123908609151840210e-02 -1.177483052015304565e-01 -3.038472263142466545e-03 -2.129635810852050781e-01 1.882098764181137085e-01 1.279914528131484985e-01 7.646776735782623291e-02 -5.503308773040771484e-01 -1.460541784763336182e-02 2.352764159440994263e-01 4.916334897279739380e-02 -5.286540836095809937e-02
1.202905401587486267e-01 -1.535480320453643799e-01 1.799263656139373779e-01 -7.142025977373123169e-02 -2.363900393247604370e-01 7.540611177682876587e-02 2.123586833477020264e-01 2.237627059221267700e-01 1.427002698183059692e-01 2.700302600860595703e-01 -1.575643271207809448e-01 -3.853353485465049744e-02 5.726433545351028442e-02 -6.960287690162658691e-02 8.629812300205230713e-02 -5.415380001068115234e-01 8.712962269783020020e-02 -1.399502903223037720e-01 -5.606055259704589844e-02 -5.087729170918464661e-02 -2.427115887403488159e-01 1.037945747375488281e-01 1.451022922992706299e-01 1.769057288765907288e-02 2.045271098613739014e-01 7.644294947385787964e-02 8.531415462493896484e-02 -3.291960358619689941e-01 7.835562527179718018e-02 -8.154579252004623413e-02 7.316210865974426270e-02 1.313989609479904175e-01
-7.939908653497695923e-02 -2.090737074613571167e-01 1.377737075090408325e-01 -1.626105904579162598e-01 -2.956376671791076660e-01 -3.486955910921096802e-02 8.546796441078186035e-02 2.170518636703491211e-01 3.047404624521732330e-02 1.966147273778915405e-01 6.940931081771850586e-02 2.554794549942016602e-01 -3.197062015533447266e-02 2.637479901313781738e-01 1.896810978651046753e-01 -1.360660940408706665e-01 1.386231333017349243e-01 -4.245916306972503662e-01 -1.672778278589248657e-01 3.072197362780570984e-02 -1.537236385047435760e-03 1.036432832479476929e-01 2.425901293754577637e-01 2.107907682657241821e-01 8.320445567369461060e-02 -6.361435353755950928e-02 4.016442969441413879e-02 -2.897036373615264893e-01 1.011523604393005371e-01 9.276668727397918701e-02 1.386750042438507080e-01 -1.084748096764087677e-02
-1.716328598558902740e-02 1.359253749251365662e-02 1.597073078155517578e-01 1.519203335046768188e-01 -3.624796867370605469e-01 -4.667290672659873962e-02 3.512730449438095093e-02 1.632013022899627686e-01 1.713288426399230957e-01 1.258116364479064941e-01 -1.329782009124755859e-01 -1.633359817788004875e-03 -4.950682818889617920e-02 3.212744742631912231e-02 -9.279486536979675293e-02 1.778687932528555393e-03 1.215244382619857788e-01 -7.606287300586700439e-02 -1.455457787960767746e-02 2.331185387447476387e-03 -7.461933046579360962e-02 -4.303842037916183472e-02 -1.701484322547912598e-01 1.178945451974868774e-01 4.784809425473213196e-02 -4.268419742584228516e-02 -5.535617470741271973e-02 -3.046361505985260010e-01 -1.066779810935258865e-02 5.409090593457221985e-02 6.698366999626159668e-02 7.096339017152786255e-02
7.702310383319854736e-02 -7.827450335025787354e-02 -8.898787945508956909e-02 1.283392757177352905e-01 -1.917379200458526611e-01 9.450046718120574951e-02 -1.074996814131736755e-01 1.346076373010873795e-02 4.943781346082687378e-02 -1.533998399972915649e-01 -2.787105441093444824e-01 4.064614325761795044e-02 -1.015440672636032104e-01 -4.142474755644798279e-02 -6.373403221368789673e-02 1.467507827328518033e-04 7.337654381990432739e-02 1.142575591802597046e-01 7.770197093486785889e-02 2.504049427807331085e-02 -6.223713513463735580e-03 -6.834655255079269409e-02 -2.019078731536865234e-01 3.633653686847537756e-04 -2.788085304200649261e-02 -1.263566911220550537e-01 6.727200001478195190e-02 -2.046251483261585236e-02 3.531835600733757019e-02 -5.540031567215919495e-02 2.613859809935092926e-02 -1.009740531444549561e-01
-5.246166139841079712e-02 -1.318022459745407104e-01 4.345862939953804016e-02 -2.574054300785064697e-01 -3.655781969428062439e-02 8.628769218921661377e-02 2.423476874828338623e-01 2.795987576246261597e-02 -2.146092355251312256e-01 -2.956910524517297745e-03 2.632046118378639221e-02 1.766299828886985779e-02 2.351411730051040649e-01 2.183713950216770172e-03 2.051931023597717285e-01 -2.303048223257064819e-02 -2.325798422098159790e-01 -4.107143282890319824e-01 -4.984094798564910889e-01 -4.089316353201866150e-02 1.336421817541122437e-01 1.873617246747016907e-02 2.396287769079208374e-01 5.752281472086906433e-02 -4.496318101882934570e-02 -2.149286121129989624e-02 6.092920899391174316e-02 -4.070708751678466797e-01 2.439488321542739868e-01 -1.350608840584754944e-02 9.615191817283630371e-02 -2.089688777923583984e-01
-2.676894366741180420e-01 4.993957933038473129e-03 -1.651094555854797363e-01 -1.659675128757953644e-02 -1.389616578817367554e-01 -1.537756621837615967e-01 -2.626766264438629150e-01 -1.983191519975662231e-01 -1.393731534481048584e-01 -1.067147552967071533e-01 -3.713906183838844299e-02 -2.151270508766174316e-01 5.246192216873168945e-02 -1.801702976226806641e-01 2.926530689001083374e-02 1.508997231721878052e-01 2.178168855607509613e-02 -3.238393068313598633e-01 -3.250372111797332764e-01 5.361691862344741821e-02 3.079398572444915771e-01 -2.082377970218658447e-01 -2.765716314315795898e-01 -3.348160088062286377e-01 -9.396196901798248291e-02 1.294241193681955338e-02 -5.396149680018424988e-02 -1.961236000061035156e-01 -7.680055499076843262e-02 1.242776662111282349e-01 -3.713696300983428955e-01 -2.121524214744567871e-01
-2.135522365570068359e-01 -7.379564642906188965e-02 -2.604289911687374115e-02 -2.236186861991882324e-01 2.164214998483657837e-01 -3.329666554927825928e-01 -3.372400999069213867e-02 -1.419615000486373901e-01 -2.840230464935302734e-01 3.051751255989074707e-01 2.909114956855773926e-01 -1.647223383188247681e-01 6.667965650558471680e-02 -2.878185510635375977e-01 1.622004508972167969e-01 1.153062358498573303e-01 -2.002432495355606079e-01 3.165732696652412415e-02 -1.740813553333282471e-01 -1.138401031494140625e-01 1.758024394512176514e-01 6.982016563415527344e-02 -3.140612272545695305e-03 -4.907569587230682373e-01 -5.642841383814811707e-02 -2.471679598093032837e-01 3.926235251128673553e-03 6.716499477624893188e-02 -1.024000067263841629e-02 -1.648190617561340332e-01 4.154775664210319519e-02 -1.985230445861816406e-01
7.811415009200572968e-03 4.633289761841297150e-03 1.697023957967758179e-01 -1.061525419354438782e-01 -1.779325604438781738e-01 -7.632837444543838501e-02 -8.432549238204956055e-02 -1.563619822263717651e-01 3.832528367638587952e-02 9.794902056455612183e-02 -4.227211475372314453e-01 -1.195229217410087585e-01 -2.487069461494684219e-03 7.015614956617355347e-02 2.020388608798384666e-03 9.307050146162509918e-03 -8.027380704879760742e-02 -1.215751543641090393e-01 -1.378989964723587036e-02 -1.121062934398651123e-01 -1.283532828092575073e-01 5.402566492557525635e-02 -2.180600017309188843e-01 -1.119538489729166031e-02 -5.857029929757118225e-02 2.149525471031665802e-02 -9.776339679956436157e-02 -3.374946862459182739e-02 2.826155163347721100e-02 5.289592221379280090e-02 -9.177779406309127808e-02 -6.769307702779769897e-02
3.721635043621063232e-02 -1.127609238028526306e-01 2.340792864561080933e-01 -1.599380224943161011e-01 1.440261751413345337e-01 -2.384720742702484131e-01 6.372270733118057251e-02 1.573433876037597656e-01 -4.770057648420333862e-02 1.555173099040985107e-01 4.805190116167068481e-02 -4.257257878780364990e-01 5.386196821928024292e-02 -4.195577800273895264e-01 2.858549952507019043e-01 -1.776646971702575684e-01 -3.648080527782440186e-01 -1.100324243307113647e-01 4.888804629445075989e-02 -3.414223194122314453e-01 -6.889669597148895264e-02 2.408860772848129272e-01 2.962968349456787109e-01 1.381622999906539917e-01 2.181288301944732666e-01 -3.495559692382812500e-01 2.001478821039199829e-01 -1.407653242349624634e-01 1.410669386386871338e-01 -3.771814107894897461e-01 7.490403205156326294e-02 7.226278632879257202e-02
8.132121874950826168e-04 -1.250610202550888062e-01 -5.514369811862707138e-03 3.903079032897949219e-02 -7.799056917428970337e-02 -1.136041581630706787e-01 1.517578065395355225e-01 -1.079203467816114426e-02 1.285998970270156860e-01 1.959129422903060913e-01 -1.611109673976898193e-01 -2.612584233283996582e-01 1.635875999927520752e-01 3.393748775124549866e-02 -7.223818451166152954e-02 -6.608644127845764160e-02 -5.639947950839996338e-02 6.425291299819946289e-02 1.268645524978637695e-01 -2.362045049667358398e-01 -3.380764126777648926e-01 2.245057672262191772e-01 4.197804722934961319e-03 1.360372900962829590e-01 1.326461583375930786e-01 -2.400983273983001709e-01 -1.270941197872161865e-01 6.764284521341323853e-02 8.181467652320861816e-02 -2.149737626314163208e-01 1.558999121189117432e-01 2.593218088150024414e-01
2.141421646228991449e-05 -7.582873851060867310e-02 2.512141503393650055e-02 -1.387834995985031128e-01 1.218673810362815857e-01 -1.781465113162994385e-01 -1.009243130683898926e-01 -2.528873272240161896e-02 -4.080559611320495605e-01 -1.879019439220428467e-01 -3.545758873224258423e-02 -1.422443687915802002e-01 2.720521762967109680e-02 -4.805562496185302734e-01 -6.954592652618885040e-03 5.588456615805625916e-02 -2.029395848512649536e-01 1.265299618244171143e-01 7.106577605009078979e-02 -1.908932626247406006e-01 -2.667505741119384766e-01 1.759956479072570801e-01 1.545099020004272461e-01 -1.314090192317962646e-01 8.491568267345428467e-02 -2.630081772804260254e-01 4.233358800411224365e-02 1.002964228391647339e-01 1.672332435846328735e-01 -2.101436853408813477e-01 -5.318374186754226685e-02 -7.020881399512290955e-03
4.032459110021591187e-02 4.121543467044830322e-02 -2.424485236406326294e-02 9.058816730976104736e-02 -5.332278832793235779e-02 5.395703017711639404e-02 1.211627051234245300e-01 -1.841218769550323486e-02 1.365516930818557739e-01 -8.347707986831665039e-02 -4.670013114809989929e-02 -1.615648120641708374e-01 7.997053116559982300e-02 -1.189905032515525818e-01 -3.234868943691253662e-01 3.109567053616046906e-02 1.422142386436462402e-01 2.095251828432083130e-01 2.420590966939926147e-01 -1.150440499186515808e-01 3.111655823886394501e-02 1.700090318918228149e-01 3.660837933421134949e-02 7.605128921568393707e-03 -1.412542313337326050e-01 -5.573272705078125000e-02 -3.172136843204498291e-01 -3.048908524215221405e-02 1.338340044021606445e-01 -2.961896359920501709e-02 3.887863457202911377e-02 -5.348994955420494080e-02
1.895840279757976532e-02 -6.672920286655426025e-02 -5.468406900763511658e-02 -1.346965506672859192e-02 -1.100923493504524231e-01 -1.504547148942947388e-02 -1.262411624193191528e-01 -4.070603102445602417e-02 -8.812601864337921143e-02 7.169564487412571907e-04 -2.329399883747100830e-01 3.572414070367813110e-02 -1.506426837295293808e-02 4.219542443752288818e-02 -1.962326467037200928e-02 -2.200992405414581299e-01 -1.146969422698020935e-01 -2.155544012784957886e-01 -1.274103522300720215e-01 -6.832748651504516602e-02 3.079450875520706177e-02 -3.930404782295227051e-02 -2.274792268872261047e-02 6.472078710794448853e-02 5.237485840916633606e-02 7.603327184915542603e-02 1.266355812549591064e-01 -1.024754419922828674e-01 -2.074780873954296112e-02 1.159568801522254944e-01 -3.669799864292144775e-02 2.254606969654560089e-02
-1.332559995353221893e-02 -5.497750639915466309e-02 -1.056167576462030411e-02 -1.490659117698669434e-01 -1.120014935731887817e-01 1.435298845171928406e-02 -3.066138327121734619e-01 -3.745791018009185791e-01 -2.596098370850086212e-02 -1.650467216968536377e-01 -5.524038150906562805e-02 -4.716577753424644470e-02 -3.814168572425842285e-01 -1.365066505968570709e-02 -2.157736010849475861e-02 -5.456331372261047363e-02 3.035783208906650543e-02 -4.029602184891700745e-02 -2.727623097598552704e-02 7.487905025482177734e-02 -1.285860966891050339e-02 -1.220657378435134888e-01 -4.935350418090820312e-01 -1.729661226272583008e-01 6.338624656200408936e-02 5.363691970705986023e-02 2.719279192388057709e-02 9.076888114213943481e-02 -1.025217995047569275e-01 -7.000309973955154419e-02 -6.103815138339996338e-02 1.065237727016210556e-02
-3.727613016963005066e-02 -2.107509821653366089e-01 2.212407439947128296e-02 -3.870487585663795471e-02 -2.630079910159111023e-02 -2.383780479431152344e-02 -4.134164154529571533e-01 -3.164165914058685303e-01 -4.038765281438827515e-02 -2.034189105033874512e-01 -4.698639363050460815e-02 1.704337820410728455e-02 -6.858291476964950562e-02 -1.275233626365661621e-01 -5.597062036395072937e-02 -1.170599013566970825e-01 -3.821517527103424072e-02 -1.612294316291809082e-01 -6.903116591274738312e-03 -3.812372311949729919e-02 -8.285808376967906952e-03 -2.751669287681579590e-01 -8.963483572006225586e-02 3.539913892745971680e-02 1.965505033731460571e-01 3.056854242458939552e-03 6.413213908672332764e-02 -1.556299328804016113e-01 -6.291873008012771606e-02 1.154706701636314392e-01 -1.058185007423162460e-02 -1.067137196660041809e-01
2.352770119905471802e-01 3.860842436552047729e-02 -9.577389806509017944e-02 7.701944559812545776e-02 1.750546693801879883e-02 6.930761039257049561e-02 2.012710273265838623e-02 -8.441520482301712036e-02 -1.669899225234985352e-01 2.359604462981224060e-02 -4.846742004156112671e-02 -1.912067234516143799e-01 2.217298299074172974e-01 -1.985384672880172729e-01 -1.938629448413848877e-01 1.106775179505348206e-01 -1.601969450712203979e-01 2.162144482135772705e-01 1.908332109451293945e-02 -1.881056129932403564e-01 -1.068191155791282654e-01 -1.081187799572944641e-01 -1.064219027757644653e-01 3.277767077088356018e-02 -1.951838582754135132e-01 3.318956121802330017e-02 -3.721144497394561768e-01 -2.887640520930290222e-02 7.909313589334487915e-02 1.468948787078261375e-03 2.739596664905548096e-01 3.206316381692886353e-02
1.131277903914451599e-01 4.604277387261390686e-02 2.989856339991092682e-02 6.651172786951065063e-02 -3.618224561214447021e-01 -2.839255034923553467e-01 -1.559165865182876587e-01 -1.935116499662399292e-01 -3.471693396568298340e-02 -1.331649422645568848e-01 -3.284354209899902344e-01 -4.448456168174743652e-01 -1.035748496651649475e-01 -1.890301704406738281e-01 -1.470959633588790894e-01 1.457129120826721191e-01 -2.208691835403442383e-01 -1.013476476073265076e-01 -2.597572281956672668e-02 2.084616124629974365e-01 -1.872947365045547485e-01 -1.687634177505970001e-02 5.302457511425018311e-02 2.206495553255081177e-01 1.051814556121826172e-01 -3.110477924346923828e-01 -9.587430953979492188e-02 -2.660041451454162598e-01 7.174413651227951050e-02 -4.866343140602111816e-01 -1.531009189784526825e-02 -1.477686166763305664e-01
1.062271445989608765e-01 8.752668648958206177e-02 -6.802757829427719116e-02 1.717834360897541046e-02 -2.955816984176635742e-01 -8.113526552915573120e-02 -1.017229557037353516e-01 -1.311050355434417725e-01 -1.351077407598495483e-01 -1.864383816719055176e-01 -2.687686681747436523e-01 -3.222461640834808350e-01 -8.246665447950363159e-02 -1.751651316881179810e-01 -4.140042886137962341e-02 1.666475236415863037e-01 -3.376624882221221924e-01 -1.481645703315734863e-01 -1.091210171580314636e-01 3.274585306644439697e-01 -1.693031936883926392e-01 -1.071249172091484070e-01 -2.002754248678684235e-03 -1.555315703153610229e-01 1.040326207876205444e-01 -3.434774279594421387e-01 -2.838525362312793732e-02 -3.068498075008392334e-01 5.954946577548980713e-02 -6.719220429658889771e-02 5.388789623975753784e-02 -4.087037444114685059e-01
-4.558355081826448441e-03 5.356534570455551147e-02 2.499918080866336823e-02 -2.856969833374023438e-02 -1.588813513517379761e-01 -8.159112930297851562e-02 -6.311181187629699707e-02 -1.497312486171722412e-01 -4.214169681072235107e-01 -5.311655625700950623e-02 -2.959538437426090240e-02 -1.952533125877380371e-01 1.344759762287139893e-01 -2.968657016754150391e-01 7.734738290309906006e-03 1.553149223327636719e-01 -5.178938508033752441e-01 8.274047821760177612e-02 1.356921792030334473e-01 1.547523885965347290e-01 -1.554481685161590576e-01 1.291951835155487061e-01 4.924889653921127319e-02 1.997370719909667969e-01 -1.354741007089614868e-01 -1.267427653074264526e-01 -6.764909625053405762e-02 -2.010958269238471985e-02 -4.659808799624443054e-02 -3.451519608497619629e-01 -2.149188704788684845e-02 -4.785208702087402344e-01
1.169227063655853271e-02 3.293947577476501465e-01 7.400744408369064331e-02 3.060082495212554932e-01 4.882638156414031982e-02 -7.775938510894775391e-02 4.335994645953178406e-02 4.043776541948318481e-02 -3.278233408927917480e-01 2.574695646762847900e-01 -2.564368396997451782e-02 -8.996540307998657227e-02 1.978991776704788208e-01 -2.968622148036956787e-01 2.254009991884231567e-02 1.763964146375656128e-01 -1.156279295682907104e-01 1.720876991748809814e-01 -4.647263139486312866e-02 1.527412980794906616e-01 -1.649708002805709839e-01 2.984640002250671387e-01 2.205239981412887573e-01 6.180731579661369324e-02 -1.154716238379478455e-01 -6.557332724332809448e-02 -1.003749966621398926e-01 -1.190239861607551575e-01 2.803555130958557129e-01 -1.253361254930496216e-01 1.316292583942413330e-01 -3.901056945323944092e-01
5.182097107172012329e-02 2.057132124900817871e-01 9.650347381830215454e-02 9.777690470218658447e-02 -4.545723274350166321e-02 -4.220692813396453857e-01 -3.240024670958518982e-02 2.776065096259117126e-02 -2.005258351564407349e-01 -1.557739377021789551e-01 -2.926730215549468994e-01 -8.338934779167175293e-01 5.828492715954780579e-02 -5.566306710243225098e-01 -1.400103569030761719e-01 2.816192992031574249e-02 -2.265492528676986694e-01 -1.115630269050598145e-01 9.952062740921974182e-03 -9.357319027185440063e-02 -1.100628450512886047e-01 5.760446935892105103e-02 -1.419663429260253906e-01 2.790297567844390869e-01 2.743887342512607574e-02 -3.200676441192626953e-01 -2.198126763105392456e-01 -5.641016643494367599e-03 -2.752337232232093811e-02 -2.803848683834075928e-01 -9.614939987659454346e-02 -6.241794303059577942e-02
-8.581959456205368042e-02 -2.519579231739044189e-02 -1.993247307837009430e-02 -9.359563142061233521e-02 -1.012706980109214783e-01 -1.072460189461708069e-01 -2.319453060626983643e-01 6.759890168905258179e-02 -4.600788354873657227e-01 -2.404109835624694824e-01 -3.442365676164627075e-02 -2.364451736211776733e-01 6.310584489256143570e-03 -2.169097959995269775e-01 -4.264586567878723145e-01 2.544246017932891846e-01 -6.825115531682968140e-02 1.011655926704406738e-01 -7.006792724132537842e-02 2.390546649694442749e-01 -3.041677772998809814e-01 -1.737597733736038208e-01 -9.352977573871612549e-02 -1.811570972204208374e-01 -1.184565871953964233e-01 1.486664861440658569e-01 -2.792308330535888672e-01 1.568479090929031372e-01 -1.767642647027969360e-01 2.779273390769958496e-01 -1.713942736387252808e-01 -5.088946223258972168e-01
7.289133220911026001e-02 1.202305257320404053e-01 -7.117824628949165344e-03 1.543151121586561203e-02 -7.692803442478179932e-02 -1.230220645666122437e-01 4.184500314295291901e-03 -1.471714228391647339e-01 -3.055590391159057617e-01 -1.065969690680503845e-01 1.286384183913469315e-02 -3.703413009643554688e-01 -4.053964093327522278e-02 -4.766229093074798584e-01 -3.039215505123138428e-01 9.666711091995239258e-02 -1.000102385878562927e-01 1.835712045431137085e-02 1.948082298040390015e-01 1.766495108604431152e-01 -4.267875850200653076e-02 -2.515137791633605957e-01 -3.771110996603965759e-02 -4.532522335648536682e-02 -1.359535455703735352e-01 -1.673185378313064575e-01 -3.954721391201019287e-01 -9.401021897792816162e-02 -2.355452775955200195e-01 -2.723690122365951538e-02 -2.566715702414512634e-02 -4.623160511255264282e-02
-9.154022671282291412e-03 4.202471375465393066e-01 1.167130768299102783e-01 2.214106917381286621e-01 -1.719775237143039703e-02 -1.910564750432968140e-01 2.422496229410171509e-01 -3.996376693248748779e-02 -1.230480596423149109e-01 8.493485301733016968e-02 -2.162331491708755493e-01 -2.948705255985260010e-01 -1.453910581767559052e-02 -3.195238411426544189e-01 1.385155767202377319e-01 3.184557557106018066e-01 -3.840067386627197266e-01 -2.100608684122562408e-02 7.053595781326293945e-02 1.678646504878997803e-01 -2.369318306446075439e-01 -6.007454916834831238e-02 8.345645666122436523e-02 -5.080135166645050049e-02 -8.001005649566650391e-02 -3.482269346714019775e-01 -3.956580162048339844e-02 -9.684301167726516724e-02 -4.973477870225906372e-02 1.151780709624290466e-01 1.918590962886810303e-01 -1.632783710956573486e-01
-3.983612060546875000e-01 1.069243848323822021e-01 -1.016495451331138611e-01 1.120616216212511063e-02 -1.592659056186676025e-01 -7.811983674764633179e-02 -8.122322708368301392e-02 -1.298447102308273315e-01 -5.199847221374511719e-01 -1.027548760175704956e-01 -7.323351502418518066e-02 -1.308118402957916260e-01 -1.321993619203567505e-01 -5.440296530723571777e-01 6.786352396011352539e-02 6.518749892711639404e-02 8.605221658945083618e-02 -4.191964566707611084e-01 -2.735700309276580811e-01 1.775530129671096802e-01 -1.187709718942642212e-01 -1.288184374570846558e-01 -2.310809940099716187e-01 -2.335322052240371704e-01 -7.446689996868371964e-03 2.286742068827152252e-02 1.685796976089477539e-01 -2.553454041481018066e-01 -1.652760058641433716e-01 3.348597511649131775e-02 -3.472733795642852783e-01 -3.084513247013092041e-01
-4.261923432350158691e-01 2.305730730295181274e-01 -1.775423735380172729e-01 1.491436362266540527e-01 -1.094998940825462341e-01 9.527260810136795044e-02 1.328465789556503296e-01 6.806009262800216675e-02 -1.211110576987266541e-01 1.241635829210281372e-01 1.747957170009613037e-01 1.266267849132418633e-03 7.619064301252365112e-02 -2.956717610359191895e-01 -6.650172173976898193e-02 2.363859564065933228e-01 1.853244155645370483e-01 -2.753316164016723633e-01 -2.727624773979187012e-01 2.577728927135467529e-01 1.070100590586662292e-01 -1.906366199254989624e-01 -7.964657247066497803e-02 -1.383748799562454224e-01 1.646708995103836060e-01 3.027677536010742188e-01 2.615713048726320267e-03 -1.351452469825744629e-01 -3.652172908186912537e-02 6.525808572769165039e-02 -2.280890494585037231e-01 -3.672917485237121582e-01
-3.505350649356842041e-01 2.253800332546234131e-01 -7.738201320171356201e-02 2.675611674785614014e-01 -8.030778169631958008e-02 -1.173640191555023193e-01 -1.198168247938156128e-01 -7.339418679475784302e-02 -4.805558025836944580e-01 -1.539938431233167648e-02 -1.934620589017868042e-01 -2.116305977106094360e-01 8.914952725172042847e-02 -1.760305762290954590e-01 2.791781537234783173e-02 -2.962999604642391205e-02 5.904464423656463623e-02 -1.913943290710449219e-01 -4.361940026283264160e-01 2.234082967042922974e-01 9.998226165771484375e-02 -1.335848122835159302e-01 1.632746160030364990e-01 -4.795093536376953125e-01 -4.094645008444786072e-02 1.518760621547698975e-01 -3.096402157098054886e-03 -3.483394682407379150e-01 8.463354315608739853e-04 4.402456432580947876e-02 -3.515893518924713135e-01 -2.617648243904113770e-01
-2.454440146684646606e-01 4.632122442126274109e-02 -2.494000941514968872e-01 1.511004865169525146e-01 8.206029236316680908e-02 -2.478332072496414185e-01 -1.874350756406784058e-01 1.037277877330780029e-01 -1.300342082977294922e-01 1.465814113616943359e-01 1.465391367673873901e-01 -2.854039967060089111e-01 -3.148298338055610657e-02 -3.336796164512634277e-01 -6.242000311613082886e-02 2.830479741096496582e-01 -1.615161001682281494e-01 -4.899664223194122314e-02 -2.763810753822326660e-01 1.071932837367057800e-01 2.112698256969451904e-01 -1.642809063196182251e-01 -2.804692648351192474e-02 -1.480280309915542603e-01 2.716289646923542023e-02 -6.613822281360626221e-02 1.055483371019363403e-01 -9.308976680040359497e-02 -1.364230066537857056e-01 -1.671165525913238525e-01 -4.799967631697654724e-02 -8.221335709095001221e-02
-3.111968934535980225e-01 9.377439320087432861e-02 -2.621372342109680176e-01 8.684792369604110718e-02 2.227057814598083496e-01 -2.055176496505737305e-01 1.248261258006095886e-01 3.408393859863281250e-01 -2.408500313758850098e-01 1.016583293676376343e-01 -2.195668406784534454e-02 -3.523913323879241943e-01 -2.866200916469097137e-02 -5.471556186676025391e-01 1.290894150733947754e-01 2.172297388315200806e-01 -1.798846125602722168e-01 -7.886867225170135498e-02 -3.022657334804534912e-01 2.701803855597972870e-02 2.068577110767364502e-01 -7.222753763198852539e-02 -1.612548381090164185e-01 -4.503938555717468262e-01 8.865692652761936188e-03 -7.748085260391235352e-02 1.486691236495971680e-01 -3.221523761749267578e-02 9.679828584194183350e-02 4.386576265096664429e-02 -3.014860153198242188e-01 -3.200618922710418701e-01
-3.618053495883941650e-01 2.842608392238616943e-01 -6.021247804164886475e-02 3.434622287750244141e-01 -3.591477870941162109e-02 -2.822557091712951660e-01 -3.079086914658546448e-02 1.438351720571517944e-01 -1.458798944950103760e-01 1.808629557490348816e-02 2.652577757835388184e-01 -5.842942595481872559e-01 1.092274114489555359e-02 -3.010524511337280273e-01 1.371432095766067505e-01 5.312567353248596191e-01 -4.844614863395690918e-01 -1.593820452690124512e-01 -2.480790466070175171e-01 -1.343152951449155807e-02 -7.297754287719726562e-02 7.191888242959976196e-02 -1.791073009371757507e-02 -2.084415405988693237e-01 -1.001327112317085266e-01 -3.239277601242065430e-01 1.790526360273361206e-01 2.543490231037139893e-01 -1.352168768644332886e-01 -1.606660932302474976e-01 -3.528147935867309570e-02 -4.810583889484405518e-01
2.146622687578201294e-01 -4.162891209125518799e-01 -2.942933887243270874e-02 -4.538116157054901123e-01 2.264450341463088989e-01 -1.893034875392913818e-01 3.005258142948150635e-01 3.908507227897644043e-01 -7.470326870679855347e-02 3.497624695301055908e-01 3.665187358856201172e-01 -1.521742939949035645e-01 4.018542468547821045e-01 -1.619381010532379150e-01 4.308789968490600586e-01 -7.108472287654876709e-02 -2.137085795402526855e-01 1.066515222191810608e-01 5.209845304489135742e-01 -3.199732601642608643e-01 1.349536776542663574e-01 5.854322314262390137e-01 1.879464685916900635e-01 -9.456441551446914673e-02 1.519329845905303955e-01 -2.845530509948730469e-01 1.588049679994583130e-01 5.418341755867004395e-01 9.689639806747436523e-01 -1.685788631439208984e-01 5.038579106330871582e-01 -1.800719648599624634e-01
-2.518801987171173096e-01 2.371467798948287964e-01 -1.593938320875167847e-01 -3.006578423082828522e-02 -1.017159782350063324e-02 -2.413044273853302002e-01 1.465102434158325195e-01 5.291375890374183655e-02 -2.527448832988739014e-01 -1.430847644805908203e-01 -2.361317537724971771e-02 -2.978790700435638428e-01 6.497980654239654541e-02 -3.930133879184722900e-01 1.298141181468963623e-01 2.535614669322967529e-01 -7.863396406173706055e-02 -4.973449110984802246e-01 -4.030349850654602051e-01 3.306531012058258057e-01 3.442369028925895691e-02 -1.664801537990570068e-01 -9.344198554754257202e-02 -1.770616173744201660e-01 3.726104646921157837e-02 -1.603844761848449707e-01 3.793499618768692017e-02 -2.701795194298028946e-03 -1.309592928737401962e-02 -5.410628858953714371e-03 -4.611121714115142822e-01 -1.295387893915176392e-01
8.036553859710693359e-02 3.442013869062066078e-03 1.072231307625770569e-02 -6.218335777521133423e-02 -2.568508982658386230e-01 2.246233867481350899e-03 -3.709473609924316406e-01 -2.488123178482055664e-01 -1.608549058437347412e-01 -1.140267476439476013e-01 -1.916544139385223389e-01 2.808380685746669769e-02 -2.692392170429229736e-01 -6.137124821543693542e-02 -2.179819531738758087e-02 -4.940415918827056885e-02 7.681655883789062500e-02 2.111661620438098907e-02 -2.292505092918872833e-02 5.090179666876792908e-02 1.742507703602313995e-02 1.554322708398103714e-02 -3.991421461105346680e-01 -2.949940264225006104e-01 1.072921156883239746e-01 -3.681411221623420715e-02 -1.844251155853271484e-02 -7.480846345424652100e-02 -5.652994662523269653e-02 -1.322786440141499043e-03 7.870192825794219971e-02 -1.827066391706466675e-01
-1.636114716529846191e-01 -1.710455268621444702e-01 1.037600487470626831e-01 -7.765755057334899902e-03 -2.500870525836944580e-01 1.852233111858367920e-01 -1.139860972762107849e-01 -1.445729285478591919e-01 -1.278589665889739990e-01 6.512155383825302124e-02 -1.648791581392288208e-01 2.936773747205734253e-02 -1.584282517433166504e-01 5.348066613078117371e-02 2.067337185144424438e-01 1.426135003566741943e-02 1.117876023054122925e-01 -2.663914859294891357e-01 -3.383696377277374268e-01 1.586874872446060181e-01 6.705634295940399170e-02 6.781224906444549561e-02 -2.101113200187683105e-01 -8.630718290805816650e-02 1.697893738746643066e-01 1.556048691272735596e-01 1.243846677243709564e-02 -2.233788520097732544e-01 -1.534027978777885437e-02 1.604694873094558716e-01 2.680345438420772552e-02 1.902160942554473877e-01
8.649885654449462891e-02 -1.659658849239349365e-01 1.259311735630035400e-01 9.065009653568267822e-02 -1.494567841291427612e-01 7.623718678951263428e-02 -2.899386882781982422e-01 -2.154282629489898682e-01 -7.032147049903869629e-02 -1.925521492958068848e-01 -3.691880702972412109e-01 -4.688781499862670898e-02 -3.641992211341857910e-01 1.228984370827674866e-01 -5.294325202703475952e-02 3.330148756504058838e-02 7.387963123619556427e-04 -7.206564396619796753e-02 7.966645061969757080e-02 -8.291312307119369507e-02 -3.650235384702682495e-02 -5.546644330024719238e-02 -5.051404833793640137e-01 1.313234865665435791e-01 1.237658411264419556e-02 -1.152494922280311584e-01 1.962017081677913666e-02 -1.204151660203933716e-01 -1.693469583988189697e-01 -1.248287558555603027e-01 9.922930598258972168e-02 9.470210969448089600e-02
1.268199235200881958e-01 -3.442598506808280945e-03 2.712270990014076233e-02 -2.882567979395389557e-02 -6.132274866104125977e-02 -3.011163696646690369e-02 -2.527900338172912598e-01 -1.466397941112518311e-01 -7.819247990846633911e-02 -1.454366892576217651e-01 -3.307233750820159912e-02 9.846393764019012451e-02 -1.113126948475837708e-01 -4.757136479020118713e-02 -6.279551982879638672e-02 -1.748746186494827271e-01 -9.463370591402053833e-02 6.128102913498878479e-02 1.560384333133697510e-01 1.788735203444957733e-02 -1.416172087192535400e-02 4.641748592257499695e-02 8.189226500689983368e-03 8.312839269638061523e-02 -2.086466252803802490e-01 3.931850939989089966e-02 -9.502397477626800537e-02 1.353550851345062256e-01 -2.450711652636528015e-02 7.173696160316467285e-02 -8.521496504545211792e-02 -4.589827358722686768e-02
-2.418569028377532959e-01 -2.348937839269638062e-01 5.948413163423538208e-03 -5.467586219310760498e-02 -9.014092385768890381e-02 2.720709145069122314e-02 1.051319837570190430e-01 6.982249021530151367e-02 -4.455249905586242676e-01 1.281715333461761475e-01 8.914849907159805298e-02 -3.334361910820007324e-01 3.560392931103706360e-02 -3.935079574584960938e-01 6.810624618083238602e-03 -1.360934525728225708e-01 -1.616777777671813965e-01 1.992769539356231689e-02 -2.297064960002899170e-01 7.711320370435714722e-02 4.436861723661422729e-02 9.240162558853626251e-03 -1.151022836565971375e-01 4.989559575915336609e-02 4.733993858098983765e-02 5.579626932740211487e-02 3.397255837917327881e-01 7.924997061491012573e-02 -4.696383699774742126e-02 5.183894932270050049e-02 5.110156536102294922e-02 5.263075232505798340e-02
-1.665939092636108398e-01 -1.784748397767543793e-02 -1.460299938917160034e-01 -7.914665341377258301e-02 2.050900608301162720e-01 -2.249543070793151855e-01 -3.630347922444343567e-02 1.481517553329467773e-01 -2.206246256828308105e-01 2.351249903440475464e-01 3.216460049152374268e-01 -4.047701060771942139e-01 1.782242655754089355e-01 -5.603885054588317871e-01 7.867589592933654785e-02 -3.739444166421890259e-02 -3.596464991569519043e-01 1.131666749715805054e-01 -1.865945309400558472e-01 -1.020993962883949280e-01 2.513944804668426514e-01 1.299899816513061523e-01 1.980524361133575439e-01 -2.222886532545089722e-01 1.459936331957578659e-02 -1.443502157926559448e-01 2.908898591995239258e-01 3.668818771839141846e-01 -8.050040155649185181e-02 -4.675035178661346436e-01 -3.610330820083618164e-01 -8.653797954320907593e-02
2.261442244052886963e-01 -1.652534604072570801e-01 1.648950576782226562e-01 -3.525444269180297852e-01 -8.688465505838394165e-02 -3.692365884780883789e-01 1.883711516857147217e-01 3.153922557830810547e-01 -1.438990533351898193e-01 2.533604502677917480e-01 -1.195690687745809555e-02 -5.280319452285766602e-01 2.632318735122680664e-01 -2.513422966003417969e-01 8.424892276525497437e-02 -9.796551614999771118e-02 -3.241065144538879395e-01 2.542054355144500732e-01 2.151369899511337280e-01 -3.928619623184204102e-02 8.633534610271453857e-02 2.181284874677658081e-01 2.992579936981201172e-01 -1.780159324407577515e-01 4.760228991508483887e-01 -1.850762814283370972e-01 3.262756466865539551e-01 1.927632987499237061e-01 5.144839882850646973e-01 -3.156161606311798096e-01 1.510636955499649048e-01 -3.310216069221496582e-01
7.950465381145477295e-02 -6.749500334262847900e-02 -1.264851391315460205e-01 -4.610956087708473206e-02 9.194865077733993530e-02 4.691565036773681641e-02 -3.077183961868286133e-01 -2.213926464319229126e-01 -1.206212397664785385e-02 -2.264692187309265137e-01 -7.730150222778320312e-02 -3.512120246887207031e-02 -2.375867962837219238e-01 7.604306191205978394e-02 -3.448021039366722107e-02 -1.722288690507411957e-02 -1.601925939321517944e-01 1.687255688011646271e-02 -7.798248901963233948e-03 9.122977405786514282e-02 8.936091512441635132e-02 -2.824709750711917877e-02 -2.838686108589172363e-01 -2.926356345415115356e-02 3.633576631546020508e-02 -1.955499500036239624e-02 -1.237298548221588135e-02 1.548894941806793213e-01 3.619084134697914124e-02 -3.255096031352877617e-03 -1.077958494424819946e-01 -3.560702875256538391e-02
1.230287104845046997e-01 6.604989618062973022e-02 1.595784276723861694e-01 -9.019450098276138306e-02 -2.331055402755737305e-01 -3.854949772357940674e-01 -1.290281116962432861e-01 -1.387996785342693329e-02 -5.075455904006958008e-01 -1.589723825454711914e-01 -2.413781583309173584e-01 -8.037633448839187622e-02 -3.436394333839416504e-01 -4.737793207168579102e-01 -2.438154965639114380e-01 -2.322257310152053833e-02 -3.513837978243827820e-02 1.606205478310585022e-02 1.508526057004928589e-01 -8.648765832185745239e-02 -2.579200565814971924e-01 4.858055338263511658e-02 -1.992350965738296509e-01 -3.719473481178283691e-01 2.890591323375701904e-01 -1.844881474971771240e-01 -2.130406349897384644e-02 -1.594513356685638428e-01 -3.960952535271644592e-02 -1.554226875305175781e-01 5.111116543412208557e-02 -3.179376125335693359e-01
1.083662658929824829e-01 -1.441476047039031982e-01 -1.877279486507177353e-03 1.603116840124130249e-01 -3.199654817581176758e-02 1.458420325070619583e-02 -8.262332528829574585e-02 -9.684140980243682861e-02 9.197686612606048584e-02 -2.234774827957153320e-01 -1.774495095014572144e-01 5.057191010564565659e-03 -1.361462175846099854e-01 -1.000933051109313965e-01 -1.623381674289703369e-01 -1.219807565212249756e-02 1.420335769653320312e-01 9.332284331321716309e-02 1.090744882822036743e-01 -6.324233859777450562e-02 -1.284344643354415894e-01 -7.151874154806137085e-02 -1.971905231475830078e-01 3.774354467168450356e-03 2.046685665845870972e-02 1.570921540260314941e-01 -2.346194721758365631e-02 -9.722073376178741455e-02 -6.879954785108566284e-02 1.234012320637702942e-01 1.886906325817108154e-01 1.787056475877761841e-01
3.488534092903137207e-01 -5.409365147352218628e-02 1.760517060756683350e-01 3.506549075245857239e-02 -4.404074861668050289e-04 1.019153557717800140e-02 -1.585910320281982422e-01 1.049552811309695244e-03 -2.987949848175048828e-01 -5.655678734183311462e-02 -1.113157793879508972e-01 -2.215834110975265503e-01 -2.330737188458442688e-02 -9.813111275434494019e-02 -3.069610297679901123e-01 5.365359038114547729e-02 -1.633805967867374420e-02 1.869454421103000641e-02 7.271252572536468506e-02 3.421234712004661560e-02 -2.322596460580825806e-01 -3.262281790375709534e-02 -2.292918264865875244e-01 -2.698072195053100586e-01 4.258704930543899536e-02 -1.406194120645523071e-01 -1.351561397314071655e-01 1.845206022262573242e-01 -1.602762192487716675e-02 8.408600091934204102e-02 1.743861585855484009e-01 -3.432737588882446289e-01
1.513468921184539795e-01 6.118532642722129822e-02 -1.618882864713668823e-01 -3.015477582812309265e-02 1.909939348697662354e-01 7.483989000320434570e-02 1.420879215002059937e-01 1.311412006616592407e-01 -8.203473687171936035e-02 7.345785200595855713e-02 -3.543195500969886780e-02 -1.807730831205844879e-02 -1.325322538614273071e-01 5.231460183858871460e-02 -1.487908512353897095e-01 -1.860465109348297119e-01 1.860951036214828491e-01 1.197847798466682434e-01 -2.812745608389377594e-02 -9.593688882887363434e-03 -5.916007608175277710e-02 1.687782257795333862e-01 2.014198899269104004e-01 -1.022793576121330261e-01 -2.064920216798782349e-01 3.313852101564407349e-02 -1.944410353899002075e-01 -7.334201945923268795e-04 -2.463985001668334007e-04 -2.661478333175182343e-02 1.086020991206169128e-01 -1.889881119132041931e-02
3.933029994368553162e-02 -1.379265077412128448e-02 6.374200433492660522e-02 -2.605341747403144836e-02 -1.291517466306686401e-01 -9.213839471340179443e-02 -2.183789461851119995e-01 -3.209303915500640869e-01 -1.279194373637437820e-02 -1.846688687801361084e-01 -1.195299103856086731e-01 -1.381700336933135986e-01 -2.675116360187530518e-01 -1.516498923301696777e-01 2.405021525919437408e-02 -6.657783687114715576e-02 1.303689628839492798e-01 8.834821730852127075e-02 4.450962319970130920e-02 -5.928241834044456482e-02 4.439240694046020508e-02 -3.036270849406719208e-02 -1.790759712457656860e-01 -5.212139710783958435e-02 1.453908532857894897e-01 -1.331328600645065308e-01 5.517120286822319031e-02 -6.832689046859741211e-02 -1.404172629117965698e-01 -1.755237020552158356e-02 -3.780072927474975586e-02 4.892165958881378174e-02
-9.416940808296203613e-02 9.617144614458084106e-02 -2.529920339584350586e-01 -5.606722459197044373e-02 3.225227296352386475e-01 -1.109549403190612793e-01 -1.151277199387550354e-01 -1.947291642427444458e-01 -6.221847236156463623e-02 -2.249822169542312622e-01 1.414969414472579956e-01 4.420386976562440395e-04 -3.234687447547912598e-01 -1.073500290513038635e-01 8.261904120445251465e-02 -2.560546398162841797e-01 6.141905114054679871e-02 1.438784971833229065e-02 -3.115998022258281708e-02 9.896857291460037231e-02 4.392237588763237000e-02 -1.901037693023681641e-01 -2.905301749706268311e-01 -1.482380330562591553e-01 -1.909852325916290283e-01 -1.165229305624961853e-01 5.622223019599914551e-02 1.376481950283050537e-01 -1.539603769779205322e-01 -1.201531812548637390e-01 -4.303030967712402344e-01 -1.585710048675537109e-01
-1.956510730087757111e-02 -5.291986465454101562e-02 -3.073311969637870789e-02 -1.045975089073181152e-01 -8.930166810750961304e-02 -1.328963786363601685e-01 -2.608447670936584473e-01 -3.198565542697906494e-01 -3.721816092729568481e-02 -2.372904419898986816e-01 9.884349256753921509e-02 3.891994804143905640e-02 -9.300347417593002319e-02 -6.338066607713699341e-02 1.904951930046081543e-01 -3.635300695896148682e-01 -2.701599150896072388e-02 -1.874866187572479248e-01 -1.064427271485328674e-01 -1.040274575352668762e-01 1.287525147199630737e-01 -2.968305945396423340e-01 -2.390623539686203003e-01 1.448958273977041245e-02 6.523389369249343872e-02 -1.402617990970611572e-01 9.151355177164077759e-02 1.016690209507942200e-01 -1.479707658290863037e-01 -1.413649916648864746e-01 -1.483761705458164215e-02 5.840607360005378723e-02
9.382943063974380493e-02 1.463152561336755753e-02 -1.203454434871673584e-01 -8.819150924682617188e-02 1.193362772464752197e-01 -4.204896464943885803e-02 4.731706902384757996e-02 2.214118689298629761e-01 -6.966193020343780518e-02 -5.912138894200325012e-02 7.804327458143234253e-02 2.193855307996273041e-02 3.702072054147720337e-02 -1.782910525798797607e-01 -2.397149652242660522e-01 -1.072275824844837189e-02 8.528606267645955086e-04 8.094228804111480713e-02 3.068684637546539307e-01 3.095051646232604980e-02 -2.303629517555236816e-01 -2.412645332515239716e-02 1.571237109601497650e-02 -1.230662390589714050e-01 -1.742272228002548218e-01 -2.978283911943435669e-03 -1.657853573560714722e-01 1.687558144330978394e-01 -9.151758253574371338e-02 8.565431088209152222e-02 8.273646980524063110e-02 -3.107965588569641113e-01
-7.056806236505508423e-02 1.766371577978134155e-01 -4.964901600033044815e-04 4.660608246922492981e-02 -4.758970066905021667e-02 -6.715948879718780518e-02 -1.496959179639816284e-01 -8.363197743892669678e-02 -6.340624094009399414e-01 -2.961036190390586853e-02 -5.360227078199386597e-02 -3.550027012825012207e-01 -9.255680441856384277e-02 -5.538794994354248047e-01 -2.417069971561431885e-01 3.965873643755912781e-02 1.808123737573623657e-01 -3.045594552531838417e-03 9.241295047104358673e-03 2.379738539457321167e-01 -2.595168948173522949e-01 -3.158932179212570190e-02 3.622397780418395996e-02 -2.003387957811355591e-01 -2.998330593109130859e-01 6.752695888280868530e-02 -1.200624033808708191e-01 -1.660548001527786255e-01 -1.861587725579738617e-02 1.852522939443588257e-01 5.565818399190902710e-02 -5.803242325782775879e-01
9.620026499032974243e-02 1.592492014169692993e-01 -2.327367849647998810e-02 1.409925222396850586e-01 3.039667010307312012e-02 -4.965807870030403137e-02 4.895225167274475098e-02 8.667149581015110016e-03 -4.977689385414123535e-01 8.600706607103347778e-02 -6.623679399490356445e-02 -2.042637951672077179e-02 -5.764560028910636902e-02 -5.155509114265441895e-01 -3.590749576687812805e-02 2.865789234638214111e-01 2.261441573500633240e-02 1.128960400819778442e-01 1.912239789962768555e-01 7.449623942375183105e-02 -1.986530721187591553e-01 4.221323132514953613e-02 4.858702421188354492e-02 -1.606907397508621216e-01 -2.854003608226776123e-01 1.214463114738464355e-01 -1.569671779870986938e-01 3.436698019504547119e-02 1.916348636150360107e-01 2.046675682067871094e-01 1.326305717229843140e-01 -4.024237990379333496e-01
-1.435778588056564331e-01 1.699490696191787720e-01 -1.573501080274581909e-01 -6.943288445472717285e-02 1.575224399566650391e-01 -7.238633185625076294e-02 1.020802780985832214e-01 1.181873530149459839e-01 -2.605696320533752441e-01 1.527978926897048950e-01 -1.162201687693595886e-01 -1.135556772351264954e-01 1.373432129621505737e-01 -4.682467877864837646e-01 -1.846668496727943420e-02 3.044160604476928711e-01 1.805784851312637329e-01 4.991027712821960449e-02 7.656312733888626099e-02 3.398221135139465332e-01 -1.384445577859878540e-01 1.645155367441475391e-03 1.057305634021759033e-01 1.172399371862411499e-01 -2.425885498523712158e-01 1.222878396511077881e-01 -1.543568521738052368e-01 6.570520251989364624e-02 8.367554843425750732e-02 2.253314703702926636e-01 -6.286270916461944580e-02 -3.590910434722900391e-01
9.612233936786651611e-02 8.952849358320236206e-02 1.167198196053504944e-01 -2.262931168079376221e-01 2.356054186820983887e-01 -7.852716743946075439e-02 -2.092980779707431793e-02 1.728311777114868164e-01 1.456687506288290024e-02 2.991767972707748413e-02 2.556807100772857666e-01 -3.073265589773654938e-02 -9.574174880981445312e-03 -2.364976257085800171e-01 9.472289681434631348e-02 2.618242204189300537e-01 9.152225404977798462e-02 -5.779752135276794434e-02 -7.390982657670974731e-02 1.846313476562500000e-01 -5.358635261654853821e-02 2.708512246608734131e-01 2.639920115470886230e-01 -2.137475609779357910e-01 -2.468659281730651855e-01 3.054771758615970612e-02 5.319615080952644348e-02 2.514843344688415527e-01 1.558754444122314453e-01 9.991358965635299683e-02 6.490836292505264282e-02 -3.057197034358978271e-01
1.961455941200256348e-01 1.446994692087173462e-01 -2.046805322170257568e-01 8.843920193612575531e-03 9.355249255895614624e-02 -2.136956341564655304e-02 1.743245273828506470e-01 -9.334751963615417480e-02 -3.029620647430419922e-01 -1.200371887534856796e-02 1.028144657611846924e-01 -1.827195882797241211e-01 -3.426350653171539307e-02 -1.847554445266723633e-01 -3.632508516311645508e-01 -2.343659143662080169e-04 -7.266991585493087769e-02 -1.582815684378147125e-02 2.779126465320587158e-01 7.592130452394485474e-02 -2.541616857051849365e-01 3.261156007647514343e-02 8.453570306301116943e-02 -2.540685236454010010e-01 -3.449605405330657959e-01 1.726600900292396545e-02 -5.759931802749633789e-01 6.931570917367935181e-02 -1.869350969791412354e-01 1.498944908380508423e-01 -1.063677072525024414e-01 -1.609287858009338379e-01
9.229287505149841309e-03 -5.723285079002380371e-01 -4.710535109043121338e-01 -5.488218665122985840e-01 7.875128090381622314e-02 1.188193261623382568e-01 6.457696110010147095e-02 2.032891660928726196e-01 -6.246303766965866089e-02 -1.260675042867660522e-01 1.725522428750991821e-01 -4.589030984789133072e-03 -1.658168882131576538e-01 -5.350698530673980713e-02 -2.589834630489349365e-01 1.025165766477584839e-01 8.247231692075729370e-02 1.093713119626045227e-01 5.054777488112449646e-02 1.529382169246673584e-01 -1.393622308969497681e-01 -8.758526295423507690e-03 -1.573202610015869141e-01 -3.132954835891723633e-01 -4.806650280952453613e-01 5.666051059961318970e-02 -4.580850005149841309e-01 2.113850712776184082e-01 -3.240306079387664795e-01 9.538406133651733398e-02 -3.516441583633422852e-01 -2.296656183898448944e-02
3.424087464809417725e-01 -1.531255990266799927e-01 -3.256969749927520752e-01 -8.843204006552696228e-03 -1.641139574348926544e-02 1.702029407024383545e-01 2.459700405597686768e-02 -5.314842239022254944e-02 -1.515488475561141968e-01 -3.719817698001861572e-01 -6.697081774473190308e-02 1.340840905904769897e-01 4.225751757621765137e-02 1.495965663343667984e-02 -5.524097084999084473e-01 -9.323488175868988037e-02 8.390647126361727715e-04 2.550447583198547363e-01 2.526656389236450195e-01 1.504694670438766479e-01 1.875265315175056458e-02 -1.338848173618316650e-01 -1.843089461326599121e-01 -2.325906455516815186e-01 -5.237694382667541504e-01 7.389663159847259521e-02 -4.476985335350036621e-01 2.044857889413833618e-01 -2.870667874813079834e-01 5.655273050069808960e-02 -1.642666757106781006e-01 -1.665572635829448700e-02
-2.293668501079082489e-02 -1.855206340551376343e-01 -3.846650570631027222e-02 -2.722609043121337891e-01 2.465218752622604370e-01 4.341692477464675903e-02 1.594048738479614258e-01 2.269890159368515015e-02 -1.165578812360763550e-01 2.045948356389999390e-01 2.616254612803459167e-03 -9.569930285215377808e-02 2.727002277970314026e-02 -3.662457168102264404e-01 3.942827880382537842e-01 3.230020701885223389e-01 -3.677241876721382141e-02 7.581317424774169922e-02 -1.224498078227043152e-01 9.890979528427124023e-02 2.382751107215881348e-01 1.159713119268417358e-01 3.029226362705230713e-01 -3.512166738510131836e-01 -3.350211977958679199e-01 -8.392974734306335449e-02 2.430344372987747192e-01 1.112799793481826782e-01 2.811453342437744141e-01 8.122669160366058350e-02 -1.852409243583679199e-01 -3.508254885673522949e-01
-5.298572778701782227e-01 3.292593657970428467e-01 -1.869633644819259644e-01 2.982467114925384521e-01 8.416526764631271362e-02 -4.355035722255706787e-01 6.404685974121093750e-02 1.531019359827041626e-01 -2.310968935489654541e-01 1.863547861576080322e-01 1.888627558946609497e-01 -6.209990978240966797e-01 -9.065171331167221069e-02 -7.756764292716979980e-01 2.104925662279129028e-01 2.408606559038162231e-01 -3.254807889461517334e-01 -3.936656415462493896e-01 -5.037885308265686035e-01 -2.570818364620208740e-01 -6.390734761953353882e-02 -1.859218925237655640e-01 -2.539898268878459930e-02 -1.740001291036605835e-01 -6.125219911336898804e-02 -3.596807122230529785e-01 1.240422576665878296e-01 1.244885921478271484e-01 -3.394703567028045654e-02 -4.369153380393981934e-01 -2.414288818836212158e-01 -1.843898743391036987e-01
-2.624166905879974365e-01 1.344328969717025757e-01 -1.210537925362586975e-01 3.749439865350723267e-02 1.606704592704772949e-01 4.023449495434761047e-02 -3.094771876931190491e-02 2.007466703653335571e-01 -3.614863753318786621e-01 8.291950076818466187e-02 2.567349374294281006e-01 -3.509688749909400940e-02 -1.000429391860961914e-01 -1.901306509971618652e-01 1.647514402866363525e-01 1.910569667816162109e-01 -3.884926140308380127e-01 -4.031862318515777588e-02 -3.408641219139099121e-01 4.200858995318412781e-02 3.906124830245971680e-02 -3.529288992285728455e-02 -1.282648462802171707e-02 -2.122772932052612305e-01 1.118578240275382996e-01 -2.021331936120986938e-01 3.460427373647689819e-02 -2.280903980135917664e-02 -6.856118328869342804e-03 6.751223001629114151e-03 -1.805801987648010254e-01 -2.925130128860473633e-01
-4.856570661067962646e-01 4.328790605068206787e-01 -1.386607885360717773e-01 3.415248095989227295e-01 8.454566448926925659e-02 -2.079186737537384033e-01 1.837873309850692749e-01 3.162766620516777039e-02 -6.469636410474777222e-02 4.608759656548500061e-02 1.737210601568222046e-01 -3.771569430828094482e-01 -1.781407892704010010e-01 -4.437654614448547363e-01 8.670694194734096527e-03 1.675767898559570312e-01 -4.793900847434997559e-01 -3.393515050411224365e-01 -2.489248067140579224e-01 -1.203181967139244080e-01 9.812390804290771484e-02 -2.347957491874694824e-01 6.597778201103210449e-02 -8.080386370420455933e-02 -1.268087923526763916e-01 -3.418254256248474121e-01 -8.706745505332946777e-02 6.017187610268592834e-02 -1.942131668329238892e-02 -2.667828202247619629e-01 -2.868000268936157227e-01 -1.450825929641723633e-01
-1.275652199983596802e-01 2.003509402275085449e-01 -2.815342135727405548e-02 -1.279824972152709961e-02 4.533641785383224487e-02 -3.777840435504913330e-01 -6.954745203256607056e-02 1.787926554679870605e-01 -3.792500495910644531e-02 -6.659608334302902222e-02 1.368883904069662094e-02 -3.719171583652496338e-01 4.406597092747688293e-02 -4.293873533606529236e-02 2.768169045448303223e-01 1.205636784434318542e-01 -3.561433255672454834e-01 -9.950663894414901733e-02 -1.210330054163932800e-01 -2.156287729740142822e-01 -1.746574230492115021e-02 3.759070113301277161e-02 1.600566655397415161e-01 -4.578483104705810547e-02 7.587563246488571167e-02 -2.384357303380966187e-01 2.316542118787765503e-01 1.238718703389167786e-01 1.488065868616104126e-01 -1.944463551044464111e-01 -4.353288188576698303e-02 -2.301331423223018646e-02
-2.700665295124053955e-01 1.110347583889961243e-01 -1.815948337316513062e-01 2.333729760721325874e-03 1.625433862209320068e-01 -3.267896771430969238e-01 4.827946424484252930e-02 2.583365142345428467e-01 -2.680063545703887939e-01 1.195149272680282593e-01 1.191955581307411194e-01 -3.043116927146911621e-01 -8.917357027530670166e-02 -2.576338350772857666e-01 1.096272841095924377e-01 1.285901516675949097e-01 -1.404347717761993408e-01 -1.272974610328674316e-01 -3.086586110293865204e-02 -1.511390656232833862e-01 1.206435486674308777e-01 7.929758727550506592e-02 -1.116285994648933411e-01 -3.982558548450469971e-01 1.283194571733474731e-01 -3.348581492900848389e-01 2.765412926673889160e-01 3.909669816493988037e-02 -1.943397894501686096e-02 -9.778742492198944092e-02 -1.221143975853919983e-01 -5.900418162345886230e-01
1.704980581998825073e-01 -2.764604091644287109e-01 1.897844672203063965e-01 -4.449332356452941895e-01 1.022606417536735535e-01 -1.171515788882970810e-02 3.018390238285064697e-01 3.961384296417236328e-01 -3.946007788181304932e-01 3.898862898349761963e-01 1.553282588720321655e-01 1.953482069075107574e-02 3.191949129104614258e-01 -5.482389777898788452e-02 4.425117373466491699e-01 1.035329625010490417e-01 -1.957818418741226196e-01 2.946668565273284912e-01 4.871579408645629883e-01 -3.433969914913177490e-01 7.829182595014572144e-02 6.561768651008605957e-01 2.021924257278442383e-01 -4.548476040363311768e-01 3.341626226902008057e-01 1.147341504693031311e-01 5.996566414833068848e-01 2.605358660221099854e-01 6.083448529243469238e-01 -2.501658797264099121e-01 5.934247374534606934e-01 -3.379190266132354736e-01
4.077494144439697266e-01 -2.753431200981140137e-01 2.557956576347351074e-01 -1.824087202548980713e-01 2.857022583484649658e-01 1.267935931682586670e-01 6.208484247326850891e-02 3.958396613597869873e-01 -2.950637340545654297e-01 5.688680708408355713e-02 6.521066278219223022e-02 8.298427611589431763e-02 1.733814328908920288e-01 1.568580567836761475e-01 4.681198894977569580e-01 -1.404042989015579224e-01 -6.690893322229385376e-03 3.555665314197540283e-01 3.390581011772155762e-01 -2.930042743682861328e-01 3.517355620861053467e-01 5.150893330574035645e-01 -1.983079500496387482e-02 -2.360907793045043945e-01 2.946756780147552490e-01 -2.018885016441345215e-01 2.317179143428802490e-01 1.767517328262329102e-01 3.505842387676239014e-01 -1.787503808736801147e-01 4.004965722560882568e-01 -3.105722665786743164e-01
-1.424601525068283081e-01 3.040349185466766357e-01 -2.901737093925476074e-01 1.437762230634689331e-01 1.218025609850883484e-01 -2.750354707241058350e-01 1.175320968031883240e-01 1.919118687510490417e-02 -1.287573724985122681e-01 1.044027581810951233e-01 1.100426167249679565e-01 -4.314044117927551270e-01 -6.542565673589706421e-02 -4.721666872501373291e-01 8.301021158695220947e-02 -2.688748063519597054e-04 -4.398812055587768555e-01 -1.141297444701194763e-01 -1.087554544210433960e-01 -4.727589488029479980e-01 -5.982579197734594345e-03 1.380701810121536255e-01 1.075278967618942261e-01 1.165315955877304077e-01 -1.460240632295608521e-01 -3.925966620445251465e-01 -2.180804125964641571e-02 8.989290148019790649e-02 -6.358697265386581421e-02 -4.372244179248809814e-01 -4.455076456069946289e-01 -1.882192790508270264e-01
-2.682839035987854004e-01 -4.181297495961189270e-02 -2.317024916410446167e-01 5.044757574796676636e-02 1.352986842393875122e-01 -4.326552525162696838e-02 -8.677886426448822021e-02 -6.556914746761322021e-02 -7.052822411060333252e-02 -1.526192724704742432e-01 1.672737300395965576e-02 -1.361815840937197208e-03 -9.357669204473495483e-02 5.250498279929161072e-02 -1.119504421949386597e-01 -1.416961699724197388e-01 1.424704864621162415e-02 5.042605847120285034e-02 -2.388914525508880615e-01 -3.370969370007514954e-02 6.849418580532073975e-02 -2.453614771366119385e-01 -1.475825309753417969e-01 4.985046386718750000e-02 -2.473758012056350708e-01 1.209911182522773743e-01 -2.753632515668869019e-02 1.442018989473581314e-02 -4.758714139461517334e-02 -3.247371315956115723e-01 -4.613282978534698486e-01 8.040190488100051880e-02
-1.178751140832901001e-01 -2.305029518902301788e-02 -2.591530606150627136e-02 1.391305476427078247e-01 5.785217881202697754e-02 -2.434407025575637817e-01 9.459431469440460205e-02 6.826416403055191040e-02 -3.347639366984367371e-02 -6.347929686307907104e-02 6.915856152772903442e-02 -2.401423454284667969e-01 -1.823761165142059326e-01 1.699980162084102631e-02 2.523524872958660126e-02 -1.148422621190547943e-02 -1.630014777183532715e-01 -9.702005237340927124e-02 -1.725823879241943359e-01 -4.389721453189849854e-01 1.226750537753105164e-01 -2.117136120796203613e-02 6.686502695083618164e-02 1.341251283884048462e-01 -2.326765805482864380e-01 -9.767589718103408813e-02 6.365758180618286133e-02 -3.156445547938346863e-02 -4.166576638817787170e-02 -4.546381235122680664e-01 -2.571021914482116699e-01 6.869389116764068604e-02
-1.819425821304321289e-01 -1.162006705999374390e-02 -3.041089475154876709e-01 1.665847301483154297e-01 9.747319668531417847e-02 1.469253748655319214e-01 -1.142406612634658813e-01 -1.195634678006172180e-01 1.113055124878883362e-01 -7.000542432069778442e-02 1.901779472827911377e-01 -5.846284329891204834e-02 -1.526562124490737915e-01 1.190006174147129059e-02 -1.857358515262603760e-01 -2.626885771751403809e-01 5.396623164415359497e-02 6.351979076862335205e-02 -1.842391937971115112e-01 -3.613255321979522705e-01 -4.154346510767936707e-02 -6.621420383453369141e-02 -8.447756618261337280e-02 1.438331007957458496e-01 -3.685146570205688477e-01 9.184455871582031250e-02 -1.446986645460128784e-01 1.387700624763965607e-02 -5.210652574896812439e-02 -2.675604224205017090e-01 -2.060121148824691772e-01 7.253095507621765137e-02
-2.970799803733825684e-02 7.719583064317703247e-02 -2.505912184715270996e-01 1.295094937086105347e-01 2.219046354293823242e-01 -7.525683194398880005e-02 1.206385046243667603e-01 7.655480504035949707e-02 7.823873311281204224e-02 -1.570702195167541504e-01 5.721212364733219147e-04 3.359675407409667969e-02 1.825525611639022827e-01 -1.438216958194971085e-02 1.037854850292205811e-01 -2.742271125316619873e-01 -5.718832253478467464e-04 1.060622930526733398e-01 -9.898836910724639893e-02 -8.798952400684356689e-02 1.290837079286575317e-01 6.735230237245559692e-02 -6.030179560184478760e-03 9.861084073781967163e-02 -4.690216481685638428e-01 6.014044955372810364e-02 -1.845813691616058350e-01 3.012998998165130615e-01 -8.391568809747695923e-02 -3.994997218251228333e-02 -1.323007792234420776e-01 1.189483702182769775e-01
-1.536285728216171265e-01 7.659932598471641541e-03 -2.097847014665603638e-01 -1.834619045257568359e-02 -5.553970485925674438e-02 -3.732149899005889893e-01 1.079133823513984680e-01 4.518556967377662659e-02 -8.713445067405700684e-02 6.036433205008506775e-02 1.751214824616909027e-02 -4.001954495906829834e-01 -2.755736373364925385e-02 -3.037812411785125732e-01 5.641359835863113403e-02 6.233796477317810059e-02 -2.957197725772857666e-01 -3.134858310222625732e-01 -8.031731843948364258e-02 -2.450942695140838623e-01 -1.386993825435638428e-01 -4.159931465983390808e-02 -9.116336703300476074e-02 -9.605676680803298950e-02 6.012953352183103561e-03 -1.545913070440292358e-01 -1.712466939352452755e-03 8.015821129083633423e-02 -7.369239628314971924e-02 -5.585002303123474121e-01 -3.426742851734161377e-01 2.164819538593292236e-01
-9.493698179721832275e-02 3.009571433067321777e-01 5.225285142660140991e-02 1.351564526557922363e-01 1.412335187196731567e-01 -3.325576186180114746e-01 2.495728582143783569e-01 2.709200233221054077e-02 -2.788870632648468018e-01 -7.630206644535064697e-02 4.144350066781044006e-03 -5.426548123359680176e-01 2.508558034896850586e-01 -6.534549593925476074e-01 2.670379579067230225e-01 -1.282609403133392334e-01 -2.112554460763931274e-01 -1.255999803543090820e-01 1.439944058656692505e-01 -6.123638153076171875e-01 -1.123994588851928711e-01 1.959334909915924072e-01 2.140890061855316162e-01 -2.070504426956176758e-01 -1.323962062597274780e-01 -3.770825564861297607e-01 4.763838648796081543e-02 3.168739676475524902e-01 -9.877298958599567413e-03 -4.137964546680450439e-01 -7.066653668880462646e-02 3.897562250494956970e-02
2.008915692567825317e-01 -1.499140262603759766e-01 -9.280205518007278442e-02 -4.718377813696861267e-02 -6.052408367395401001e-03 -1.413243860006332397e-01 -2.027331739664077759e-01 -2.038812264800071716e-02 -3.072327077388763428e-01 -1.225879490375518799e-01 -2.363907359540462494e-02 -3.640903159976005554e-02 2.053162306547164917e-01 -1.570576727390289307e-01 1.667899638414382935e-01 -1.845860294997692108e-02 -2.444222718477249146e-01 -1.527135670185089111e-01 1.561841368675231934e-01 7.307737832888960838e-04 1.285044997930526733e-01 8.125352673232555389e-03 7.063946127891540527e-02 -3.342667818069458008e-01 9.325264953076839447e-03 -2.668316960334777832e-01 1.902226656675338745e-01 1.840480715036392212e-01 -1.971191316843032837e-01 -2.054428867995738983e-02 3.129277378320693970e-02 -2.311887890100479126e-01
-2.013013958930969238e-01 1.704567372798919678e-01 -5.969810485839843750e-01 2.125264853239059448e-01 9.484745562076568604e-02 -9.607329964637756348e-02 6.667332351207733154e-02 1.124932691454887390e-01 1.044322103261947632e-01 -9.424506127834320068e-02 4.733430221676826477e-02 1.284756958484649658e-01 -5.234911665320396423e-02 9.748331457376480103e-02 8.713480830192565918e-02 -4.761646389961242676e-01 1.107811555266380310e-02 1.447881162166595459e-01 -1.187225654721260071e-01 -3.068358004093170166e-01 1.646510511636734009e-01 5.478190630674362183e-02 1.432512104511260986e-01 -3.160053119063377380e-02 -3.866680562496185303e-01 -5.820162221789360046e-02 -1.211034953594207764e-01 4.966601729393005371e-02 -1.159352585673332214e-01 -2.418238967657089233e-01 -3.481222987174987793e-01 1.994385384023189545e-02
-3.326055780053138733e-02 -1.047876756638288498e-02 -1.438354849815368652e-01 -6.330225616693496704e-02 1.354824155569076538e-01 1.861829757690429688e-01 -6.582108139991760254e-02 6.022904068231582642e-02 1.144833713769912720e-01 -1.005011200904846191e-01 4.907701630145311356e-03 2.562616765499114990e-01 -2.637573778629302979e-01 2.250979244709014893e-01 -2.550385296344757080e-01 -7.983079552650451660e-02 -4.783650487661361694e-02 3.239256143569946289e-02 9.953210502862930298e-02 -7.674039900302886963e-02 -5.966488644480705261e-02 -1.060738787055015564e-02 -8.295427262783050537e-02 -5.633536726236343384e-02 -2.683751285076141357e-01 -6.750636547803878784e-02 -1.929611861705780029e-01 -7.729647308588027954e-02 4.602149128913879395e-02 -1.061051338911056519e-02 -3.487892746925354004e-01 1.273756176233291626e-01
-4.740266129374504089e-02 -1.818244606256484985e-01 -1.971985250711441040e-01 -2.784616127610206604e-02 2.268577367067337036e-01 -5.393359065055847168e-02 9.936423972249031067e-03 9.414555877447128296e-02 6.961368769407272339e-02 7.243159413337707520e-02 1.981188803911209106e-01 1.606597453355789185e-01 -7.035262137651443481e-02 1.583165116608142853e-02 -5.898515507578849792e-02 -9.937194734811782837e-02 -4.576864838600158691e-02 9.352459758520126343e-02 2.731656096875667572e-02 -1.460778117179870605e-01 1.400009989738464355e-01 -2.776422351598739624e-02 6.787069886922836304e-02 4.638681188225746155e-02 -2.026871740818023682e-01 -4.156711511313915253e-04 -1.371480971574783325e-01 1.275910139083862305e-01 5.737893655896186829e-02 1.469704657793045044e-01 -2.849524915218353271e-01 -5.272566922940313816e-04
9.946261346340179443e-02 -3.307943642139434814e-01 -2.013585120439529419e-01 -3.697932362556457520e-01 1.586930751800537109e-01 9.590690582990646362e-02 6.183964200317859650e-03 1.985445432364940643e-02 7.150770723819732666e-02 4.015376791357994080e-02 5.299996957182884216e-02 1.284411996603012085e-01 -2.391645759344100952e-01 1.749294698238372803e-01 -2.100179195404052734e-01 -2.558574080467224121e-01 1.551618427038192749e-01 2.237663269042968750e-01 2.983244955539703369e-01 -9.234703332185745239e-02 -1.225556582212448120e-01 -1.012018695473670959e-01 -1.619871407747268677e-01 1.419297307729721069e-01 -1.640853136777877808e-01 1.210302263498306274e-01 -3.025585711002349854e-01 4.570491611957550049e-02 -2.036335766315460205e-01 9.784009307622909546e-02 -1.568598002195358276e-01 1.453761309385299683e-01
-9.447121992707252502e-03 -2.823945283889770508e-01 -3.125179708003997803e-01 -2.838084399700164795e-01 2.358000278472900391e-01 2.572501301765441895e-01 3.211885094642639160e-01 5.785737931728363037e-02 1.125678569078445435e-01 -3.892675787210464478e-02 -1.247110031545162201e-02 8.857768028974533081e-02 1.615163683891296387e-02 2.585846781730651855e-01 -4.646803252398967743e-03 -1.438378244638442993e-01 8.131344616413116455e-02 -1.074055861681699753e-02 1.915940195322036743e-01 2.072758227586746216e-02 1.480091549456119537e-02 -5.030222609639167786e-02 9.510879963636398315e-02 6.112247332930564880e-02 -4.937923550605773926e-01 1.447354555130004883e-01 -2.772519886493682861e-01 7.904354482889175415e-02 8.636714518070220947e-02 1.448238044977188110e-01 -1.409649550914764404e-01 2.165969163179397583e-01
-1.598531156778335571e-01 2.388405241072177887e-02 -3.779137730598449707e-01 6.743385642766952515e-02 2.729610167443752289e-02 1.265959888696670532e-01 -5.195098370313644409e-02 -5.320832505822181702e-02 9.905494749546051025e-02 -1.639448851346969604e-01 -5.322079733014106750e-02 -9.674068540334701538e-02 -1.288554966449737549e-01 4.137062281370162964e-02 -2.047271281480789185e-02 -2.002876996994018555e-01 -1.315281540155410767e-01 3.160253167152404785e-02 -1.158241927623748779e-02 -4.529359638690948486e-01 2.490660175681114197e-02 6.394933164119720459e-02 1.170253455638885498e-01 9.247636049985885620e-02 -3.641049563884735107e-01 4.985926300287246704e-02 -1.044350787997245789e-01 6.331689655780792236e-02 6.544581800699234009e-02 -2.668992280960083008e-01 -3.375175595283508301e-01 -7.846748828887939453e-02
-1.428119689226150513e-01 -1.187177672982215881e-01 -6.349206566810607910e-01 -6.720362603664398193e-02 1.646934300661087036e-01 -1.021658331155776978e-01 -1.357207745313644409e-01 -1.850010007619857788e-01 7.376590371131896973e-02 -3.668240457773208618e-02 -3.314160741865634918e-03 1.545746177434921265e-01 1.484364569187164307e-01 1.522136759012937546e-02 1.609005928039550781e-01 -3.393490314483642578e-01 8.433327823877334595e-02 -4.017464071512222290e-02 -1.051814407110214233e-01 -3.367911577224731445e-01 5.613874644041061401e-02 -1.798201650381088257e-01 9.826646186411380768e-03 7.533833384513854980e-02 -4.626207649707794189e-01 -7.372796535491943359e-02 -5.067822523415088654e-03 8.188742399215698242e-02 -1.174573451280593872e-01 -6.374591588973999023e-02 -2.295246273279190063e-01 3.995499014854431152e-02
-9.780838340520858765e-02 4.079260863363742828e-03 -1.896254420280456543e-01 7.831529527902603149e-02 1.022606641054153442e-01 -3.329413831233978271e-01 -3.438983559608459473e-01 -1.872892677783966064e-01 -1.615856960415840149e-02 -1.656375825405120850e-01 -4.576526582241058350e-02 -7.091922312974929810e-02 9.005822241306304932e-02 5.442751199007034302e-02 1.800025552511215210e-01 -1.271022111177444458e-01 -6.534548476338386536e-03 -5.352094024419784546e-02 -2.700642943382263184e-01 -5.415014028549194336e-01 1.826312988996505737e-01 -3.107820749282836914e-01 1.185489892959594727e-01 1.463701874017715454e-01 -4.072194099426269531e-01 -2.888439893722534180e-01 1.207904666662216187e-01 -5.891746655106544495e-02 -1.625308841466903687e-01 -3.303829431533813477e-01 -2.774330675601959229e-01 2.679482288658618927e-02
9.673993289470672607e-02 -6.608275771141052246e-01 -6.338837146759033203e-01 -5.408526062965393066e-01 1.325659304857254028e-01 -8.587850257754325867e-03 7.943672686815261841e-02 1.910171657800674438e-02 1.903237700462341309e-01 -1.802730709314346313e-01 1.024083644151687622e-01 1.894061565399169922e-01 4.990459606051445007e-02 1.225222423672676086e-01 -1.500162184238433838e-01 -4.399879276752471924e-01 1.118657290935516357e-01 4.573899134993553162e-02 5.350796878337860107e-02 -9.806854277849197388e-02 -4.208866506814956665e-02 4.054299741983413696e-02 -2.116947174072265625e-01 1.805340200662612915e-01 -3.861800432205200195e-01 4.611586406826972961e-02 -4.046719968318939209e-01 7.160042226314544678e-02 -2.133768945932388306e-01 -1.420018672943115234e-01 -2.972080409526824951e-01 1.564813554286956787e-01
-3.873848542571067810e-02 -5.953370332717895508e-01 -4.279062449932098389e-01 -7.443040609359741211e-01 9.317740797996520996e-02 1.065075322985649109e-01 2.807229459285736084e-01 1.183297932147979736e-01 9.387934207916259766e-02 1.427105367183685303e-01 1.233931109309196472e-01 3.567094206809997559e-01 -1.429364234209060669e-01 8.204876631498336792e-02 8.466806262731552124e-02 8.600136265158653259e-03 2.742549777030944824e-01 1.459396183490753174e-01 -6.685345619916915894e-02 1.648065745830535889e-01 -2.826466858386993408e-01 2.873104214668273926e-01 1.831770390272140503e-01 -1.355466544628143311e-01 -3.089964389801025391e-01 1.394790560007095337e-01 -2.108315825462341309e-01 1.867504417896270752e-01 -1.327038258314132690e-01 2.591764330863952637e-01 -9.623317420482635498e-02 9.215173125267028809e-02
1.233790218830108643e-01 -8.701587319374084473e-01 -3.641145527362823486e-01 -8.123649358749389648e-01 1.267778277397155762e-01 1.399533301591873169e-01 3.074099421501159668e-01 2.045805156230926514e-01 -6.595581304281949997e-03 1.144951283931732178e-01 7.974526286125183105e-02 6.201247451826930046e-04 1.759626865386962891e-01 1.843737512826919556e-01 1.477073729038238525e-01 -8.776041120290756226e-02 1.638325601816177368e-01 1.300675123929977417e-01 1.352545320987701416e-01 3.523357212543487549e-01 -2.713720202445983887e-01 4.654988050460815430e-01 2.562677562236785889e-01 -4.342036843299865723e-01 -4.695927798748016357e-01 1.077512204647064209e-01 -7.299357652664184570e-02 2.550727128982543945e-01 1.633438766002655029e-01 7.539635896682739258e-02 -1.255936771631240845e-01 -1.062734276056289673e-01
