6.720721721649169922e-01 -7.811976075172424316e-01
-3.889486789703369141e-01 3.608735203742980957e-01
7.903748154640197754e-01 -7.755318284034729004e-01
-5.868181586265563965e-01 3.405385315418243408e-01
4.715502262115478516e-01 -7.714568078517913818e-02
-1.649618744850158691e-01 5.253608822822570801e-01
-1.030601263046264648e-01 -4.926573932170867920e-01
3.186595439910888672e-01 -2.778360247611999512e-01
-2.786392569541931152e-01 4.041350483894348145e-01
2.181042581796646118e-01 -4.593914449214935303e-01
6.868975758552551270e-01 -7.623810172080993652e-01
-4.964371323585510254e-01 7.164772599935531616e-02
5.354257225990295410e-01 -4.411781430244445801e-01
-1.890712380409240723e-01 3.503778278827667236e-01
4.921663403511047363e-01 -4.790299236774444580e-01
-4.615079462528228760e-01 2.709950506687164307e-01
-1.669504344463348389e-01 2.435283511877059937e-01
5.099270939826965332e-01 -7.050055265426635742e-01
3.337411582469940186e-01 -8.859464526176452637e-01
5.341899022459983826e-02 6.510722637176513672e-01
8.764365315437316895e-01 -6.548098325729370117e-01
1.676326096057891846e-01 -2.588405907154083252e-01
6.171338558197021484e-01 -4.554421603679656982e-01
-2.164842635393142700e-01 4.026435315608978271e-01
5.249074101448059082e-01 -6.344525218009948730e-01
-1.217285692691802979e-01 4.485129415988922119e-01
6.835399866104125977e-01 -6.284000873565673828e-01
3.922446072101593018e-01 -3.060571551322937012e-01
3.175191953778266907e-02 -3.120224475860595703e-01
-5.891175270080566406e-01 8.932027965784072876e-02
5.752351284027099609e-01 -7.205270528793334961e-01
-4.415560066699981689e-01 5.984206870198249817e-02
